digraph Tree {
node [shape=box, style="filled, rounded", color="black", fontname="helvetica"] ;
edge [fontname="helvetica"] ;
0 [label=<OverallQual &le; 7.5<br/>squared_error = 6757763135.044<br/>samples = 1022<br/>value = 180908.226>, fillcolor="#fae5d7"] ;
1 [label=<OverallQual &le; 6.5<br/>squared_error = 2425080943.706<br/>samples = 860<br/>value = 156793.149>, fillcolor="#fbeadd"] ;
0 -> 1 [labeldistance=2.5, labelangle=45, headlabel="True"] ;
2 [label=<GrLivArea &le; 1378.5<br/>squared_error = 1434054148.251<br/>samples = 638<br/>value = 139094.749>, fillcolor="#fbede2"] ;
1 -> 2 ;
3 [label=<YearBuilt &le; 1952.5<br/>squared_error = 869278536.748<br/>samples = 396<br/>value = 123112.172>, fillcolor="#fcf0e7"] ;
2 -> 3 ;
4 [label=<CentralAir_Y &le; 0.5<br/>squared_error = 711017164.329<br/>samples = 139<br/>value = 102226.871>, fillcolor="#fdf3ec"] ;
3 -> 4 ;
5 [label=<BedroomAbvGr &le; 1.5<br/>squared_error = 587014283.134<br/>samples = 42<br/>value = 81244.238>, fillcolor="#fdf7f2"] ;
4 -> 5 ;
6 [label=<MSSubClass &le; 25.0<br/>squared_error = 149436111.25<br/>samples = 6<br/>value = 54018.5>, fillcolor="#fefcfa"] ;
5 -> 6 ;
7 [label=<FullBath &le; 0.5<br/>squared_error = 3978030.25<br/>samples = 2<br/>value = 37305.5>, fillcolor="#fffffe"] ;
6 -> 7 ;
8 [label=<squared_error = 0.0<br/>samples = 1<br/>value = 35311.0>, fillcolor="#ffffff"] ;
7 -> 8 ;
9 [label=<squared_error = 0.0<br/>samples = 1<br/>value = 39300.0>, fillcolor="#fffefe"] ;
7 -> 9 ;
10 [label=<EnclosedPorch &le; 43.5<br/>squared_error = 12671875.0<br/>samples = 4<br/>value = 62375.0>, fillcolor="#fefaf7"] ;
6 -> 10 ;
11 [label=<LandContour_Low &le; 0.5<br/>squared_error = 222222.222<br/>samples = 3<br/>value = 60333.333>, fillcolor="#fefbf8"] ;
10 -> 11 ;
12 [label=<squared_error = 0.0<br/>samples = 2<br/>value = 60000.0>, fillcolor="#fefbf8"] ;
11 -> 12 ;
13 [label=<squared_error = 0.0<br/>samples = 1<br/>value = 61000.0>, fillcolor="#fefaf8"] ;
11 -> 13 ;
14 [label=<squared_error = 0.0<br/>samples = 1<br/>value = 68500.0>, fillcolor="#fef9f6"] ;
10 -> 14 ;
15 [label=<Neighborhood_IDOTRR &le; 0.5<br/>squared_error = 515813820.008<br/>samples = 36<br/>value = 85781.861>, fillcolor="#fdf6f1"] ;
5 -> 15 ;
16 [label=<GrLivArea &le; 1137.5<br/>squared_error = 369069486.538<br/>samples = 26<br/>value = 92529.0>, fillcolor="#fdf5ef"] ;
15 -> 16 ;
17 [label=<1stFlrSF &le; 608.0<br/>squared_error = 241980818.75<br/>samples = 20<br/>value = 85882.5>, fillcolor="#fdf6f1"] ;
16 -> 17 ;
18 [label=<Neighborhood_OldTown &le; 0.5<br/>squared_error = 422302500.0<br/>samples = 2<br/>value = 58450.0>, fillcolor="#fefbf9"] ;
17 -> 18 ;
19 [label=<squared_error = 0.0<br/>samples = 1<br/>value = 79000.0>, fillcolor="#fdf7f3"] ;
18 -> 19 ;
20 [label=<squared_error = 0.0<br/>samples = 1<br/>value = 37900.0>, fillcolor="#fffefe"] ;
18 -> 20 ;
21 [label=<Id &le; 1428.5<br/>squared_error = 129038649.691<br/>samples = 18<br/>value = 88930.556>, fillcolor="#fdf6f0"] ;
17 -> 21 ;
22 [label=<MoSold &le; 8.0<br/>squared_error = 72573494.81<br/>samples = 17<br/>value = 87044.118>, fillcolor="#fdf6f1"] ;
21 -> 22 ;
23 [label=<GarageArea &le; 477.0<br/>squared_error = 43038555.556<br/>samples = 15<br/>value = 89116.667>, fillcolor="#fdf6f0"] ;
22 -> 23 ;
24 [label=<Exterior1st_MetalSd &le; 0.5<br/>squared_error = 22589408.284<br/>samples = 13<br/>value = 90903.846>, fillcolor="#fdf5f0"] ;
23 -> 24 ;
25 [label=<BsmtUnfSF &le; 390.0<br/>squared_error = 9262625.0<br/>samples = 10<br/>value = 92875.0>, fillcolor="#fdf5ef"] ;
24 -> 25 ;
26 [label=<Foundation_CBlock &le; 0.5<br/>squared_error = 5431938.776<br/>samples = 7<br/>value = 91464.286>, fillcolor="#fdf5ef"] ;
25 -> 26 ;
27 [label=<Exterior1st_Stucco &le; 0.5<br/>squared_error = 3034000.0<br/>samples = 5<br/>value = 90350.0>, fillcolor="#fdf5f0"] ;
26 -> 27 ;
28 [label=<Exterior2nd_BrkFace &le; 0.5<br/>squared_error = 1254218.75<br/>samples = 4<br/>value = 91062.5>, fillcolor="#fdf5f0"] ;
27 -> 28 ;
29 [label=<Neighborhood_SWISU &le; 0.5<br/>squared_error = 171666.667<br/>samples = 3<br/>value = 90450.0>, fillcolor="#fdf5f0"] ;
28 -> 29 ;
30 [label=<MSSubClass &le; 60.0<br/>squared_error = 30625.0<br/>samples = 2<br/>value = 90175.0>, fillcolor="#fdf5f0"] ;
29 -> 30 ;
31 [label=<squared_error = 0.0<br/>samples = 1<br/>value = 90350.0>, fillcolor="#fdf5f0"] ;
30 -> 31 ;
32 [label=<squared_error = 0.0<br/>samples = 1<br/>value = 90000.0>, fillcolor="#fdf5f0"] ;
30 -> 32 ;
33 [label=<squared_error = 0.0<br/>samples = 1<br/>value = 91000.0>, fillcolor="#fdf5f0"] ;
29 -> 33 ;
34 [label=<squared_error = 0.0<br/>samples = 1<br/>value = 92900.0>, fillcolor="#fdf5ef"] ;
28 -> 34 ;
35 [label=<squared_error = 0.0<br/>samples = 1<br/>value = 87500.0>, fillcolor="#fdf6f1"] ;
27 -> 35 ;
36 [label=<Exterior1st_Stucco &le; 0.5<br/>squared_error = 562500.0<br/>samples = 2<br/>value = 94250.0>, fillcolor="#fdf5ef"] ;
26 -> 36 ;
37 [label=<squared_error = 0.0<br/>samples = 1<br/>value = 95000.0>, fillcolor="#fdf4ee"] ;
36 -> 37 ;
38 [label=<squared_error = 0.0<br/>samples = 1<br/>value = 93500.0>, fillcolor="#fdf5ef"] ;
36 -> 38 ;
39 [label=<1stFlrSF &le; 784.5<br/>squared_error = 2722222.222<br/>samples = 3<br/>value = 96166.667>, fillcolor="#fdf4ee"] ;
25 -> 39 ;
40 [label=<squared_error = 0.0<br/>samples = 1<br/>value = 94000.0>, fillcolor="#fdf5ef"] ;
39 -> 40 ;
41 [label=<OverallCond &le; 5.5<br/>squared_error = 562500.0<br/>samples = 2<br/>value = 97250.0>, fillcolor="#fdf4ee"] ;
39 -> 41 ;
42 [label=<squared_error = 0.0<br/>samples = 1<br/>value = 96500.0>, fillcolor="#fdf4ee"] ;
41 -> 42 ;
43 [label=<squared_error = 0.0<br/>samples = 1<br/>value = 98000.0>, fillcolor="#fdf4ee"] ;
41 -> 43 ;
44 [label=<MSSubClass &le; 110.0<br/>squared_error = 10888888.889<br/>samples = 3<br/>value = 84333.333>, fillcolor="#fdf6f1"] ;
24 -> 44 ;
45 [label=<Id &le; 963.5<br/>squared_error = 2250000.0<br/>samples = 2<br/>value = 86500.0>, fillcolor="#fdf6f1"] ;
44 -> 45 ;
46 [label=<squared_error = 0.0<br/>samples = 1<br/>value = 88000.0>, fillcolor="#fdf6f0"] ;
45 -> 46 ;
47 [label=<squared_error = 0.0<br/>samples = 1<br/>value = 85000.0>, fillcolor="#fdf6f1"] ;
45 -> 47 ;
48 [label=<squared_error = 0.0<br/>samples = 1<br/>value = 80000.0>, fillcolor="#fdf7f3"] ;
44 -> 48 ;
49 [label=<GrLivArea &le; 854.0<br/>squared_error = 20250000.0<br/>samples = 2<br/>value = 77500.0>, fillcolor="#fdf8f3"] ;
23 -> 49 ;
50 [label=<squared_error = 0.0<br/>samples = 1<br/>value = 73000.0>, fillcolor="#fef8f5"] ;
49 -> 50 ;
51 [label=<squared_error = 0.0<br/>samples = 1<br/>value = 82000.0>, fillcolor="#fdf7f2"] ;
49 -> 51 ;
52 [label=<Exterior2nd_Stucco &le; 0.5<br/>squared_error = 20250000.0<br/>samples = 2<br/>value = 71500.0>, fillcolor="#fef9f5"] ;
22 -> 52 ;
53 [label=<squared_error = 0.0<br/>samples = 1<br/>value = 76000.0>, fillcolor="#fef8f4"] ;
52 -> 53 ;
54 [label=<squared_error = 0.0<br/>samples = 1<br/>value = 67000.0>, fillcolor="#fef9f6"] ;
52 -> 54 ;
55 [label=<squared_error = 0.0<br/>samples = 1<br/>value = 121000.0>, fillcolor="#fcf0e7"] ;
21 -> 55 ;
56 [label=<2ndFlrSF &le; 511.0<br/>squared_error = 154601146.667<br/>samples = 6<br/>value = 114684.0>, fillcolor="#fcf1e9"] ;
16 -> 56 ;
57 [label=<YrSold &le; 2007.0<br/>squared_error = 25000000.0<br/>samples = 2<br/>value = 130000.0>, fillcolor="#fceee5"] ;
56 -> 57 ;
58 [label=<squared_error = 0.0<br/>samples = 1<br/>value = 135000.0>, fillcolor="#fbede3"] ;
57 -> 58 ;
59 [label=<squared_error = 0.0<br/>samples = 1<br/>value = 125000.0>, fillcolor="#fcefe6"] ;
57 -> 59 ;
60 [label=<OpenPorchSF &le; 12.0<br/>squared_error = 43466828.0<br/>samples = 4<br/>value = 107026.0>, fillcolor="#fcf2eb"] ;
56 -> 60 ;
61 [label=<ExterCond_TA &le; 0.5<br/>squared_error = 7840000.0<br/>samples = 2<br/>value = 100800.0>, fillcolor="#fdf3ed"] ;
60 -> 61 ;
62 [label=<squared_error = 0.0<br/>samples = 1<br/>value = 103600.0>, fillcolor="#fdf3ec"] ;
61 -> 62 ;
63 [label=<squared_error = 0.0<br/>samples = 1<br/>value = 98000.0>, fillcolor="#fdf4ee"] ;
61 -> 63 ;
64 [label=<BsmtUnfSF &le; 622.0<br/>squared_error = 1567504.0<br/>samples = 2<br/>value = 113252.0>, fillcolor="#fcf1e9"] ;
60 -> 64 ;
65 [label=<squared_error = 0.0<br/>samples = 1<br/>value = 112000.0>, fillcolor="#fcf2ea"] ;
64 -> 65 ;
66 [label=<squared_error = 0.0<br/>samples = 1<br/>value = 114504.0>, fillcolor="#fcf1e9"] ;
64 -> 66 ;
67 [label=<YrSold &le; 2007.5<br/>squared_error = 471245540.41<br/>samples = 10<br/>value = 68239.3>, fillcolor="#fef9f6"] ;
15 -> 67 ;
68 [label=<YearRemodAdd &le; 1989.0<br/>squared_error = 39546875.0<br/>samples = 4<br/>value = 90875.0>, fillcolor="#fdf5f0"] ;
67 -> 68 ;
69 [label=<TotalBsmtSF &le; 863.5<br/>squared_error = 7166666.667<br/>samples = 3<br/>value = 87500.0>, fillcolor="#fdf6f1"] ;
68 -> 69 ;
70 [label=<Exterior2nd_Wd Sdng &le; 0.5<br/>squared_error = 1562500.0<br/>samples = 2<br/>value = 85750.0>, fillcolor="#fdf6f1"] ;
69 -> 70 ;
71 [label=<squared_error = 0.0<br/>samples = 1<br/>value = 87000.0>, fillcolor="#fdf6f1"] ;
70 -> 71 ;
72 [label=<squared_error = 0.0<br/>samples = 1<br/>value = 84500.0>, fillcolor="#fdf6f1"] ;
70 -> 72 ;
73 [label=<squared_error = 0.0<br/>samples = 1<br/>value = 91000.0>, fillcolor="#fdf5f0"] ;
69 -> 73 ;
74 [label=<squared_error = 0.0<br/>samples = 1<br/>value = 101000.0>, fillcolor="#fdf3ed"] ;
68 -> 74 ;
75 [label=<Foundation_PConc &le; 0.5<br/>squared_error = 189739190.139<br/>samples = 6<br/>value = 53148.833>, fillcolor="#fefcfa"] ;
67 -> 75 ;
76 [label=<Id &le; 601.0<br/>squared_error = 79467711.84<br/>samples = 5<br/>value = 48178.6>, fillcolor="#fffdfb"] ;
75 -> 76 ;
77 [label=<RoofStyle_Gable &le; 0.5<br/>squared_error = 6502500.0<br/>samples = 2<br/>value = 37450.0>, fillcolor="#fffffe"] ;
76 -> 77 ;
78 [label=<squared_error = 0.0<br/>samples = 1<br/>value = 40000.0>, fillcolor="#fffefe"] ;
77 -> 78 ;
79 [label=<squared_error = 0.0<br/>samples = 1<br/>value = 34900.0>, fillcolor="#ffffff"] ;
77 -> 79 ;
80 [label=<TotRmsAbvGrd &le; 4.5<br/>squared_error = 219122.0<br/>samples = 3<br/>value = 55331.0>, fillcolor="#fefbf9"] ;
76 -> 80 ;
81 [label=<squared_error = 0.0<br/>samples = 1<br/>value = 55993.0>, fillcolor="#fefbf9"] ;
80 -> 81 ;
82 [label=<squared_error = 0.0<br/>samples = 2<br/>value = 55000.0>, fillcolor="#fefbf9"] ;
80 -> 82 ;
83 [label=<squared_error = 0.0<br/>samples = 1<br/>value = 78000.0>, fillcolor="#fdf7f3"] ;
75 -> 83 ;
84 [label=<Fireplaces &le; 0.5<br/>squared_error = 491534375.621<br/>samples = 97<br/>value = 111312.134>, fillcolor="#fcf2ea"] ;
4 -> 84 ;
85 [label=<GarageArea &le; 227.0<br/>squared_error = 453493596.094<br/>samples = 70<br/>value = 104991.814>, fillcolor="#fcf3ec"] ;
84 -> 85 ;
86 [label=<GrLivArea &le; 1326.5<br/>squared_error = 388926592.798<br/>samples = 19<br/>value = 89184.211>, fillcolor="#fdf6f0"] ;
85 -> 86 ;
87 [label=<YearBuilt &le; 1926.5<br/>squared_error = 224905273.438<br/>samples = 16<br/>value = 83281.25>, fillcolor="#fdf7f2"] ;
86 -> 87 ;
88 [label=<Exterior2nd_MetalSd &le; 0.5<br/>squared_error = 141339843.75<br/>samples = 8<br/>value = 93062.5>, fillcolor="#fdf5ef"] ;
87 -> 88 ;
89 [label=<OpenPorchSF &le; 155.5<br/>squared_error = 22305555.556<br/>samples = 6<br/>value = 86666.667>, fillcolor="#fdf6f1"] ;
88 -> 89 ;
90 [label=<SaleCondition_AdjLand &le; 0.5<br/>squared_error = 3560000.0<br/>samples = 5<br/>value = 84700.0>, fillcolor="#fdf6f1"] ;
89 -> 90 ;
91 [label=<GrLivArea &le; 743.5<br/>squared_error = 171875.0<br/>samples = 4<br/>value = 85625.0>, fillcolor="#fdf6f1"] ;
90 -> 91 ;
92 [label=<squared_error = 0.0<br/>samples = 2<br/>value = 86000.0>, fillcolor="#fdf6f1"] ;
91 -> 92 ;
93 [label=<OverallQual &le; 4.5<br/>squared_error = 62500.0<br/>samples = 2<br/>value = 85250.0>, fillcolor="#fdf6f1"] ;
91 -> 93 ;
94 [label=<squared_error = 0.0<br/>samples = 1<br/>value = 85500.0>, fillcolor="#fdf6f1"] ;
93 -> 94 ;
95 [label=<squared_error = 0.0<br/>samples = 1<br/>value = 85000.0>, fillcolor="#fdf6f1"] ;
93 -> 95 ;
96 [label=<squared_error = 0.0<br/>samples = 1<br/>value = 81000.0>, fillcolor="#fdf7f2"] ;
90 -> 96 ;
97 [label=<squared_error = 0.0<br/>samples = 1<br/>value = 96500.0>, fillcolor="#fdf4ee"] ;
89 -> 97 ;
98 [label=<GarageArea &le; 105.0<br/>squared_error = 7562500.0<br/>samples = 2<br/>value = 112250.0>, fillcolor="#fcf1ea"] ;
88 -> 98 ;
99 [label=<squared_error = 0.0<br/>samples = 1<br/>value = 109500.0>, fillcolor="#fcf2ea"] ;
98 -> 99 ;
100 [label=<squared_error = 0.0<br/>samples = 1<br/>value = 115000.0>, fillcolor="#fcf1e9"] ;
98 -> 100 ;
101 [label=<TotalBsmtSF &le; 345.0<br/>squared_error = 117125000.0<br/>samples = 8<br/>value = 73500.0>, fillcolor="#fef8f4"] ;
87 -> 101 ;
102 [label=<squared_error = 0.0<br/>samples = 1<br/>value = 52000.0>, fillcolor="#fefcfa"] ;
101 -> 102 ;
103 [label=<BedroomAbvGr &le; 2.5<br/>squared_error = 58387755.102<br/>samples = 7<br/>value = 76571.429>, fillcolor="#fdf8f4"] ;
101 -> 103 ;
104 [label=<2ndFlrSF &le; 168.0<br/>squared_error = 8388888.889<br/>samples = 3<br/>value = 83166.667>, fillcolor="#fdf7f2"] ;
103 -> 104 ;
105 [label=<BsmtUnfSF &le; 443.5<br/>squared_error = 1562500.0<br/>samples = 2<br/>value = 81250.0>, fillcolor="#fdf7f2"] ;
104 -> 105 ;
106 [label=<squared_error = 0.0<br/>samples = 1<br/>value = 82500.0>, fillcolor="#fdf7f2"] ;
105 -> 106 ;
107 [label=<squared_error = 0.0<br/>samples = 1<br/>value = 80000.0>, fillcolor="#fdf7f3"] ;
105 -> 107 ;
108 [label=<squared_error = 0.0<br/>samples = 1<br/>value = 87000.0>, fillcolor="#fdf6f1"] ;
104 -> 108 ;
109 [label=<GarageArea &le; 100.0<br/>squared_error = 38796875.0<br/>samples = 4<br/>value = 71625.0>, fillcolor="#fef9f5"] ;
103 -> 109 ;
110 [label=<WoodDeckSF &le; 131.5<br/>squared_error = 1562500.0<br/>samples = 2<br/>value = 77750.0>, fillcolor="#fdf8f3"] ;
109 -> 110 ;
111 [label=<squared_error = 0.0<br/>samples = 1<br/>value = 79000.0>, fillcolor="#fdf7f3"] ;
110 -> 111 ;
112 [label=<squared_error = 0.0<br/>samples = 1<br/>value = 76500.0>, fillcolor="#fdf8f4"] ;
110 -> 112 ;
113 [label=<Id &le; 1154.0<br/>squared_error = 1000000.0<br/>samples = 2<br/>value = 65500.0>, fillcolor="#fefaf7"] ;
109 -> 113 ;
114 [label=<squared_error = 0.0<br/>samples = 1<br/>value = 66500.0>, fillcolor="#fef9f6"] ;
113 -> 114 ;
115 [label=<squared_error = 0.0<br/>samples = 1<br/>value = 64500.0>, fillcolor="#fefaf7"] ;
113 -> 115 ;
116 [label=<Exterior1st_MetalSd &le; 0.5<br/>squared_error = 86722222.222<br/>samples = 3<br/>value = 120666.667>, fillcolor="#fcf0e7"] ;
86 -> 116 ;
117 [label=<TotRmsAbvGrd &le; 6.5<br/>squared_error = 62500.0<br/>samples = 2<br/>value = 127250.0>, fillcolor="#fcefe6"] ;
116 -> 117 ;
118 [label=<squared_error = 0.0<br/>samples = 1<br/>value = 127500.0>, fillcolor="#fcefe6"] ;
117 -> 118 ;
119 [label=<squared_error = 0.0<br/>samples = 1<br/>value = 127000.0>, fillcolor="#fcefe6"] ;
117 -> 119 ;
120 [label=<squared_error = 0.0<br/>samples = 1<br/>value = 107500.0>, fillcolor="#fcf2eb"] ;
116 -> 120 ;
121 [label=<OverallCond &le; 4.5<br/>squared_error = 349773710.857<br/>samples = 51<br/>value = 110880.922>, fillcolor="#fcf2ea"] ;
85 -> 121 ;
122 [label=<Neighborhood_OldTown &le; 0.5<br/>squared_error = 222257600.0<br/>samples = 5<br/>value = 81380.0>, fillcolor="#fdf7f2"] ;
121 -> 122 ;
123 [label=<ExterQual_Fa &le; 0.5<br/>squared_error = 47980000.0<br/>samples = 4<br/>value = 74600.0>, fillcolor="#fef8f4"] ;
122 -> 123 ;
124 [label=<HeatingQC_TA &le; 0.5<br/>squared_error = 490000.0<br/>samples = 2<br/>value = 67700.0>, fillcolor="#fef9f6"] ;
123 -> 124 ;
125 [label=<squared_error = 0.0<br/>samples = 1<br/>value = 67000.0>, fillcolor="#fef9f6"] ;
124 -> 125 ;
126 [label=<squared_error = 0.0<br/>samples = 1<br/>value = 68400.0>, fillcolor="#fef9f6"] ;
124 -> 126 ;
127 [label=<EnclosedPorch &le; 12.0<br/>squared_error = 250000.0<br/>samples = 2<br/>value = 81500.0>, fillcolor="#fdf7f2"] ;
123 -> 127 ;
128 [label=<squared_error = 0.0<br/>samples = 1<br/>value = 81000.0>, fillcolor="#fdf7f2"] ;
127 -> 128 ;
129 [label=<squared_error = 0.0<br/>samples = 1<br/>value = 82000.0>, fillcolor="#fdf7f2"] ;
127 -> 129 ;
130 [label=<squared_error = 0.0<br/>samples = 1<br/>value = 108500.0>, fillcolor="#fcf2eb"] ;
122 -> 130 ;
131 [label=<LotArea &le; 12857.0<br/>squared_error = 258753432.161<br/>samples = 46<br/>value = 114087.543>, fillcolor="#fcf1e9"] ;
121 -> 131 ;
132 [label=<GrLivArea &le; 1139.5<br/>squared_error = 195554298.873<br/>samples = 44<br/>value = 112352.886>, fillcolor="#fcf1ea"] ;
131 -> 132 ;
133 [label=<LotArea &le; 10950.0<br/>squared_error = 160936556.047<br/>samples = 20<br/>value = 104497.55>, fillcolor="#fcf3ec"] ;
132 -> 133 ;
134 [label=<Condition1_RRAn &le; 0.5<br/>squared_error = 125258631.904<br/>samples = 18<br/>value = 106808.389>, fillcolor="#fcf2eb"] ;
133 -> 134 ;
135 [label=<BsmtFinSF2 &le; 48.0<br/>squared_error = 86178807.945<br/>samples = 17<br/>value = 108414.765>, fillcolor="#fcf2eb"] ;
134 -> 135 ;
136 [label=<YearRemodAdd &le; 1981.5<br/>squared_error = 56003881.495<br/>samples = 14<br/>value = 105717.929>, fillcolor="#fcf3ec"] ;
135 -> 136 ;
137 [label=<1stFlrSF &le; 734.5<br/>squared_error = 7134666.667<br/>samples = 6<br/>value = 110980.0>, fillcolor="#fcf2ea"] ;
136 -> 137 ;
138 [label=<OverallCond &le; 7.0<br/>squared_error = 2250000.0<br/>samples = 2<br/>value = 114500.0>, fillcolor="#fcf1e9"] ;
137 -> 138 ;
139 [label=<squared_error = 0.0<br/>samples = 1<br/>value = 113000.0>, fillcolor="#fcf1ea"] ;
138 -> 139 ;
140 [label=<squared_error = 0.0<br/>samples = 1<br/>value = 116000.0>, fillcolor="#fcf1e9"] ;
138 -> 140 ;
141 [label=<MSSubClass &le; 25.0<br/>squared_error = 284200.0<br/>samples = 4<br/>value = 109220.0>, fillcolor="#fcf2eb"] ;
137 -> 141 ;
142 [label=<Exterior1st_BrkFace &le; 0.5<br/>squared_error = 40000.0<br/>samples = 2<br/>value = 109700.0>, fillcolor="#fcf2ea"] ;
141 -> 142 ;
143 [label=<squared_error = 0.0<br/>samples = 1<br/>value = 109500.0>, fillcolor="#fcf2ea"] ;
142 -> 143 ;
144 [label=<squared_error = 0.0<br/>samples = 1<br/>value = 109900.0>, fillcolor="#fcf2ea"] ;
142 -> 144 ;
145 [label=<YearRemodAdd &le; 1959.0<br/>squared_error = 67600.0<br/>samples = 2<br/>value = 108740.0>, fillcolor="#fcf2eb"] ;
141 -> 145 ;
146 [label=<squared_error = 0.0<br/>samples = 1<br/>value = 109000.0>, fillcolor="#fcf2eb"] ;
145 -> 146 ;
147 [label=<squared_error = 0.0<br/>samples = 1<br/>value = 108480.0>, fillcolor="#fcf2eb"] ;
145 -> 147 ;
148 [label=<YearRemodAdd &le; 2001.5<br/>squared_error = 56313460.734<br/>samples = 8<br/>value = 101771.375>, fillcolor="#fdf3ed"] ;
136 -> 148 ;
149 [label=<Exterior2nd_VinylSd &le; 0.5<br/>squared_error = 21099453.556<br/>samples = 3<br/>value = 93590.333>, fillcolor="#fdf5ef"] ;
148 -> 149 ;
150 [label=<SaleCondition_Alloca &le; 0.5<br/>squared_error = 836310.25<br/>samples = 2<br/>value = 90385.5>, fillcolor="#fdf5f0"] ;
149 -> 150 ;
151 [label=<squared_error = 0.0<br/>samples = 1<br/>value = 91300.0>, fillcolor="#fdf5ef"] ;
150 -> 151 ;
152 [label=<squared_error = 0.0<br/>samples = 1<br/>value = 89471.0>, fillcolor="#fdf5f0"] ;
150 -> 152 ;
153 [label=<squared_error = 0.0<br/>samples = 1<br/>value = 100000.0>, fillcolor="#fdf4ed"] ;
149 -> 153 ;
154 [label=<EnclosedPorch &le; 152.0<br/>squared_error = 13189600.0<br/>samples = 5<br/>value = 106680.0>, fillcolor="#fcf2eb"] ;
148 -> 154 ;
155 [label=<ExterCond_TA &le; 0.5<br/>squared_error = 2542500.0<br/>samples = 4<br/>value = 108350.0>, fillcolor="#fcf2eb"] ;
154 -> 155 ;
156 [label=<squared_error = 0.0<br/>samples = 1<br/>value = 105900.0>, fillcolor="#fcf3eb"] ;
155 -> 156 ;
157 [label=<GarageCars &le; 1.5<br/>squared_error = 722222.222<br/>samples = 3<br/>value = 109166.667>, fillcolor="#fcf2eb"] ;
155 -> 157 ;
158 [label=<EnclosedPorch &le; 60.0<br/>squared_error = 62500.0<br/>samples = 2<br/>value = 109750.0>, fillcolor="#fcf2ea"] ;
157 -> 158 ;
159 [label=<squared_error = 0.0<br/>samples = 1<br/>value = 110000.0>, fillcolor="#fcf2ea"] ;
158 -> 159 ;
160 [label=<squared_error = 0.0<br/>samples = 1<br/>value = 109500.0>, fillcolor="#fcf2ea"] ;
158 -> 160 ;
161 [label=<squared_error = 0.0<br/>samples = 1<br/>value = 108000.0>, fillcolor="#fcf2eb"] ;
157 -> 161 ;
162 [label=<squared_error = 0.0<br/>samples = 1<br/>value = 100000.0>, fillcolor="#fdf4ed"] ;
154 -> 162 ;
163 [label=<KitchenQual_Gd &le; 0.5<br/>squared_error = 34666666.667<br/>samples = 3<br/>value = 121000.0>, fillcolor="#fcf0e7"] ;
135 -> 163 ;
164 [label=<TotRmsAbvGrd &le; 5.5<br/>squared_error = 4000000.0<br/>samples = 2<br/>value = 117000.0>, fillcolor="#fcf1e8"] ;
163 -> 164 ;
165 [label=<squared_error = 0.0<br/>samples = 1<br/>value = 115000.0>, fillcolor="#fcf1e9"] ;
164 -> 165 ;
166 [label=<squared_error = 0.0<br/>samples = 1<br/>value = 119000.0>, fillcolor="#fcf0e8"] ;
164 -> 166 ;
167 [label=<squared_error = 0.0<br/>samples = 1<br/>value = 129000.0>, fillcolor="#fcefe5"] ;
163 -> 167 ;
168 [label=<squared_error = 0.0<br/>samples = 1<br/>value = 79500.0>, fillcolor="#fdf7f3"] ;
134 -> 168 ;
169 [label=<YrSold &le; 2009.5<br/>squared_error = 1440000.0<br/>samples = 2<br/>value = 83700.0>, fillcolor="#fdf6f2"] ;
133 -> 169 ;
170 [label=<squared_error = 0.0<br/>samples = 1<br/>value = 82500.0>, fillcolor="#fdf7f2"] ;
169 -> 170 ;
171 [label=<squared_error = 0.0<br/>samples = 1<br/>value = 84900.0>, fillcolor="#fdf6f1"] ;
169 -> 171 ;
172 [label=<YearRemodAdd &le; 1986.0<br/>squared_error = 130128889.667<br/>samples = 24<br/>value = 118899.0>, fillcolor="#fcf0e8"] ;
132 -> 172 ;
173 [label=<LotArea &le; 8596.0<br/>squared_error = 73417548.408<br/>samples = 14<br/>value = 112726.857>, fillcolor="#fcf1ea"] ;
172 -> 173 ;
174 [label=<LotArea &le; 5700.0<br/>squared_error = 53058593.75<br/>samples = 8<br/>value = 118187.5>, fillcolor="#fcf0e8"] ;
173 -> 174 ;
175 [label=<HalfBath &le; 0.5<br/>squared_error = 6250000.0<br/>samples = 2<br/>value = 107500.0>, fillcolor="#fcf2eb"] ;
174 -> 175 ;
176 [label=<squared_error = 0.0<br/>samples = 1<br/>value = 105000.0>, fillcolor="#fcf3ec"] ;
175 -> 176 ;
177 [label=<squared_error = 0.0<br/>samples = 1<br/>value = 110000.0>, fillcolor="#fcf2ea"] ;
175 -> 177 ;
178 [label=<EnclosedPorch &le; 48.0<br/>squared_error = 17895833.333<br/>samples = 6<br/>value = 121750.0>, fillcolor="#fcf0e7"] ;
174 -> 178 ;
179 [label=<LotArea &le; 6210.0<br/>squared_error = 3388888.889<br/>samples = 3<br/>value = 125666.667>, fillcolor="#fcefe6"] ;
178 -> 179 ;
180 [label=<squared_error = 0.0<br/>samples = 1<br/>value = 128000.0>, fillcolor="#fcefe5"] ;
179 -> 180 ;
181 [label=<BsmtUnfSF &le; 420.5<br/>squared_error = 1000000.0<br/>samples = 2<br/>value = 124500.0>, fillcolor="#fcefe6"] ;
179 -> 181 ;
182 [label=<squared_error = 0.0<br/>samples = 1<br/>value = 123500.0>, fillcolor="#fcefe7"] ;
181 -> 182 ;
183 [label=<squared_error = 0.0<br/>samples = 1<br/>value = 125500.0>, fillcolor="#fcefe6"] ;
181 -> 183 ;
184 [label=<LotArea &le; 8326.5<br/>squared_error = 1722222.222<br/>samples = 3<br/>value = 117833.333>, fillcolor="#fcf0e8"] ;
178 -> 184 ;
185 [label=<squared_error = 0.0<br/>samples = 1<br/>value = 116000.0>, fillcolor="#fcf1e9"] ;
184 -> 185 ;
186 [label=<SaleType_WD &le; 0.5<br/>squared_error = 62500.0<br/>samples = 2<br/>value = 118750.0>, fillcolor="#fcf0e8"] ;
184 -> 186 ;
187 [label=<squared_error = 0.0<br/>samples = 1<br/>value = 118500.0>, fillcolor="#fcf0e8"] ;
186 -> 187 ;
188 [label=<squared_error = 0.0<br/>samples = 1<br/>value = 119000.0>, fillcolor="#fcf0e8"] ;
186 -> 188 ;
189 [label=<GarageArea &le; 418.0<br/>squared_error = 7793780.0<br/>samples = 6<br/>value = 105446.0>, fillcolor="#fcf3ec"] ;
173 -> 189 ;
190 [label=<GrLivArea &le; 1220.5<br/>squared_error = 1717483.0<br/>samples = 4<br/>value = 103669.0>, fillcolor="#fdf3ec"] ;
189 -> 190 ;
191 [label=<SaleCondition_Normal &le; 0.5<br/>squared_error = 150544.0<br/>samples = 2<br/>value = 102388.0>, fillcolor="#fdf3ec"] ;
190 -> 191 ;
192 [label=<squared_error = 0.0<br/>samples = 1<br/>value = 102776.0>, fillcolor="#fdf3ec"] ;
191 -> 192 ;
193 [label=<squared_error = 0.0<br/>samples = 1<br/>value = 102000.0>, fillcolor="#fdf3ed"] ;
191 -> 193 ;
194 [label=<GrLivArea &le; 1239.5<br/>squared_error = 2500.0<br/>samples = 2<br/>value = 104950.0>, fillcolor="#fcf3ec"] ;
190 -> 194 ;
195 [label=<squared_error = 0.0<br/>samples = 1<br/>value = 104900.0>, fillcolor="#fcf3ec"] ;
194 -> 195 ;
196 [label=<squared_error = 0.0<br/>samples = 1<br/>value = 105000.0>, fillcolor="#fcf3ec"] ;
194 -> 196 ;
197 [label=<GrLivArea &le; 1283.0<br/>squared_error = 1000000.0<br/>samples = 2<br/>value = 109000.0>, fillcolor="#fcf2eb"] ;
189 -> 197 ;
198 [label=<squared_error = 0.0<br/>samples = 1<br/>value = 110000.0>, fillcolor="#fcf2ea"] ;
197 -> 198 ;
199 [label=<squared_error = 0.0<br/>samples = 1<br/>value = 108000.0>, fillcolor="#fcf2eb"] ;
197 -> 199 ;
200 [label=<1stFlrSF &le; 675.5<br/>squared_error = 81524400.0<br/>samples = 10<br/>value = 127540.0>, fillcolor="#fcefe6"] ;
172 -> 200 ;
201 [label=<squared_error = 0.0<br/>samples = 1<br/>value = 147000.0>, fillcolor="#fbebe0"] ;
200 -> 201 ;
202 [label=<1stFlrSF &le; 717.5<br/>squared_error = 43830617.284<br/>samples = 9<br/>value = 125377.778>, fillcolor="#fcefe6"] ;
200 -> 202 ;
203 [label=<SaleType_WD &le; 0.5<br/>squared_error = 25000000.0<br/>samples = 2<br/>value = 115000.0>, fillcolor="#fcf1e9"] ;
202 -> 203 ;
204 [label=<squared_error = 0.0<br/>samples = 1<br/>value = 110000.0>, fillcolor="#fcf2ea"] ;
203 -> 204 ;
205 [label=<squared_error = 0.0<br/>samples = 1<br/>value = 120000.0>, fillcolor="#fcf0e8"] ;
203 -> 205 ;
206 [label=<Exterior2nd_MetalSd &le; 0.5<br/>squared_error = 9648163.265<br/>samples = 7<br/>value = 128342.857>, fillcolor="#fcefe5"] ;
202 -> 206 ;
207 [label=<OpenPorchSF &le; 32.5<br/>squared_error = 940000.0<br/>samples = 5<br/>value = 126600.0>, fillcolor="#fcefe6"] ;
206 -> 207 ;
208 [label=<GrLivArea &le; 1323.5<br/>squared_error = 222222.222<br/>samples = 3<br/>value = 127333.333>, fillcolor="#fcefe6"] ;
207 -> 208 ;
209 [label=<squared_error = 0.0<br/>samples = 2<br/>value = 127000.0>, fillcolor="#fcefe6"] ;
208 -> 209 ;
210 [label=<squared_error = 0.0<br/>samples = 1<br/>value = 128000.0>, fillcolor="#fcefe5"] ;
208 -> 210 ;
211 [label=<squared_error = 0.0<br/>samples = 2<br/>value = 125500.0>, fillcolor="#fcefe6"] ;
207 -> 211 ;
212 [label=<YearBuilt &le; 1941.5<br/>squared_error = 4840000.0<br/>samples = 2<br/>value = 132700.0>, fillcolor="#fbeee4"] ;
206 -> 212 ;
213 [label=<squared_error = 0.0<br/>samples = 1<br/>value = 134900.0>, fillcolor="#fbeee4"] ;
212 -> 213 ;
214 [label=<squared_error = 0.0<br/>samples = 1<br/>value = 130500.0>, fillcolor="#fceee5"] ;
212 -> 214 ;
215 [label=<YrSold &le; 2009.5<br/>squared_error = 126562500.0<br/>samples = 2<br/>value = 152250.0>, fillcolor="#fbeadf"] ;
131 -> 215 ;
216 [label=<squared_error = 0.0<br/>samples = 1<br/>value = 163500.0>, fillcolor="#fae8dc"] ;
215 -> 216 ;
217 [label=<squared_error = 0.0<br/>samples = 1<br/>value = 141000.0>, fillcolor="#fbece2"] ;
215 -> 217 ;
218 [label=<LotArea &le; 8980.0<br/>squared_error = 218092311.385<br/>samples = 27<br/>value = 127698.148>, fillcolor="#fcefe5"] ;
84 -> 218 ;
219 [label=<WoodDeckSF &le; 179.0<br/>squared_error = 123589568.75<br/>samples = 20<br/>value = 121792.5>, fillcolor="#fcf0e7"] ;
218 -> 219 ;
220 [label=<Condition1_Feedr &le; 0.5<br/>squared_error = 52163464.506<br/>samples = 18<br/>value = 118997.222>, fillcolor="#fcf0e8"] ;
219 -> 220 ;
221 [label=<YearBuilt &le; 1940.5<br/>squared_error = 32754048.443<br/>samples = 17<br/>value = 120114.706>, fillcolor="#fcf0e8"] ;
220 -> 221 ;
222 [label=<GarageArea &le; 544.0<br/>squared_error = 15964615.385<br/>samples = 13<br/>value = 117850.0>, fillcolor="#fcf0e8"] ;
221 -> 222 ;
223 [label=<1stFlrSF &le; 1020.0<br/>squared_error = 8888107.639<br/>samples = 12<br/>value = 117045.833>, fillcolor="#fcf1e8"] ;
222 -> 223 ;
224 [label=<Exterior2nd_Wd Sdng &le; 0.5<br/>squared_error = 3160273.438<br/>samples = 8<br/>value = 118506.25>, fillcolor="#fcf0e8"] ;
223 -> 224 ;
225 [label=<YearBuilt &le; 1924.5<br/>squared_error = 316458.333<br/>samples = 6<br/>value = 119425.0>, fillcolor="#fcf0e8"] ;
224 -> 225 ;
226 [label=<squared_error = 0.0<br/>samples = 1<br/>value = 118400.0>, fillcolor="#fcf0e8"] ;
225 -> 226 ;
227 [label=<YearRemodAdd &le; 1971.0<br/>squared_error = 127600.0<br/>samples = 5<br/>value = 119630.0>, fillcolor="#fcf0e8"] ;
225 -> 227 ;
228 [label=<LotArea &le; 8200.0<br/>squared_error = 35468.75<br/>samples = 4<br/>value = 119787.5>, fillcolor="#fcf0e8"] ;
227 -> 228 ;
229 [label=<Foundation_PConc &le; 0.5<br/>squared_error = 10555.556<br/>samples = 3<br/>value = 119883.333>, fillcolor="#fcf0e8"] ;
228 -> 229 ;
230 [label=<EnclosedPorch &le; 56.0<br/>squared_error = 2500.0<br/>samples = 2<br/>value = 119950.0>, fillcolor="#fcf0e8"] ;
229 -> 230 ;
231 [label=<squared_error = 0.0<br/>samples = 1<br/>value = 119900.0>, fillcolor="#fcf0e8"] ;
230 -> 231 ;
232 [label=<squared_error = 0.0<br/>samples = 1<br/>value = 120000.0>, fillcolor="#fcf0e8"] ;
230 -> 232 ;
233 [label=<squared_error = 0.0<br/>samples = 1<br/>value = 119750.0>, fillcolor="#fcf0e8"] ;
229 -> 233 ;
234 [label=<squared_error = 0.0<br/>samples = 1<br/>value = 119500.0>, fillcolor="#fcf0e8"] ;
228 -> 234 ;
235 [label=<squared_error = 0.0<br/>samples = 1<br/>value = 119000.0>, fillcolor="#fcf0e8"] ;
227 -> 235 ;
236 [label=<YrSold &le; 2007.5<br/>squared_error = 1562500.0<br/>samples = 2<br/>value = 115750.0>, fillcolor="#fcf1e9"] ;
224 -> 236 ;
237 [label=<squared_error = 0.0<br/>samples = 1<br/>value = 114500.0>, fillcolor="#fcf1e9"] ;
236 -> 237 ;
238 [label=<squared_error = 0.0<br/>samples = 1<br/>value = 117000.0>, fillcolor="#fcf1e8"] ;
236 -> 238 ;
239 [label=<YrSold &le; 2007.0<br/>squared_error = 7546875.0<br/>samples = 4<br/>value = 114125.0>, fillcolor="#fcf1e9"] ;
223 -> 239 ;
240 [label=<TotalBsmtSF &le; 1048.0<br/>squared_error = 1562500.0<br/>samples = 2<br/>value = 111750.0>, fillcolor="#fcf2ea"] ;
239 -> 240 ;
241 [label=<squared_error = 0.0<br/>samples = 1<br/>value = 113000.0>, fillcolor="#fcf1ea"] ;
240 -> 241 ;
242 [label=<squared_error = 0.0<br/>samples = 1<br/>value = 110500.0>, fillcolor="#fcf2ea"] ;
240 -> 242 ;
243 [label=<BsmtUnfSF &le; 574.0<br/>squared_error = 2250000.0<br/>samples = 2<br/>value = 116500.0>, fillcolor="#fcf1e9"] ;
239 -> 243 ;
244 [label=<squared_error = 0.0<br/>samples = 1<br/>value = 118000.0>, fillcolor="#fcf0e8"] ;
243 -> 244 ;
245 [label=<squared_error = 0.0<br/>samples = 1<br/>value = 115000.0>, fillcolor="#fcf1e9"] ;
243 -> 245 ;
246 [label=<squared_error = 0.0<br/>samples = 1<br/>value = 127500.0>, fillcolor="#fcefe6"] ;
222 -> 246 ;
247 [label=<LotArea &le; 8032.0<br/>squared_error = 16476875.0<br/>samples = 4<br/>value = 127475.0>, fillcolor="#fcefe6"] ;
221 -> 247 ;
248 [label=<TotRmsAbvGrd &le; 5.5<br/>squared_error = 250000.0<br/>samples = 2<br/>value = 131500.0>, fillcolor="#fceee4"] ;
247 -> 248 ;
249 [label=<squared_error = 0.0<br/>samples = 1<br/>value = 132000.0>, fillcolor="#fbeee4"] ;
248 -> 249 ;
250 [label=<squared_error = 0.0<br/>samples = 1<br/>value = 131000.0>, fillcolor="#fceee5"] ;
248 -> 250 ;
251 [label=<GarageArea &le; 441.0<br/>squared_error = 302500.0<br/>samples = 2<br/>value = 123450.0>, fillcolor="#fcf0e7"] ;
247 -> 251 ;
252 [label=<squared_error = 0.0<br/>samples = 1<br/>value = 124000.0>, fillcolor="#fcefe7"] ;
251 -> 252 ;
253 [label=<squared_error = 0.0<br/>samples = 1<br/>value = 122900.0>, fillcolor="#fcf0e7"] ;
251 -> 253 ;
254 [label=<squared_error = 0.0<br/>samples = 1<br/>value = 100000.0>, fillcolor="#fdf4ed"] ;
220 -> 254 ;
255 [label=<WoodDeckSF &le; 217.0<br/>squared_error = 63202500.0<br/>samples = 2<br/>value = 146950.0>, fillcolor="#fbebe0"] ;
219 -> 255 ;
256 [label=<squared_error = 0.0<br/>samples = 1<br/>value = 154900.0>, fillcolor="#fbeade"] ;
255 -> 256 ;
257 [label=<squared_error = 0.0<br/>samples = 1<br/>value = 139000.0>, fillcolor="#fbede2"] ;
255 -> 257 ;
258 [label=<OpenPorchSF &le; 32.0<br/>squared_error = 103744897.959<br/>samples = 7<br/>value = 144571.429>, fillcolor="#fbece1"] ;
218 -> 258 ;
259 [label=<YearBuilt &le; 1935.0<br/>squared_error = 3388888.889<br/>samples = 3<br/>value = 135166.667>, fillcolor="#fbede3"] ;
258 -> 259 ;
260 [label=<squared_error = 0.0<br/>samples = 1<br/>value = 137500.0>, fillcolor="#fbede3"] ;
259 -> 260 ;
261 [label=<OverallCond &le; 6.0<br/>squared_error = 1000000.0<br/>samples = 2<br/>value = 134000.0>, fillcolor="#fbeee4"] ;
259 -> 261 ;
262 [label=<squared_error = 0.0<br/>samples = 1<br/>value = 135000.0>, fillcolor="#fbede3"] ;
261 -> 262 ;
263 [label=<squared_error = 0.0<br/>samples = 1<br/>value = 133000.0>, fillcolor="#fbeee4"] ;
261 -> 263 ;
264 [label=<Neighborhood_Crawfor &le; 0.5<br/>squared_error = 62921875.0<br/>samples = 4<br/>value = 151625.0>, fillcolor="#fbebdf"] ;
258 -> 264 ;
265 [label=<MoSold &le; 9.5<br/>squared_error = 9000000.0<br/>samples = 2<br/>value = 144000.0>, fillcolor="#fbece1"] ;
264 -> 265 ;
266 [label=<squared_error = 0.0<br/>samples = 1<br/>value = 147000.0>, fillcolor="#fbebe0"] ;
265 -> 266 ;
267 [label=<squared_error = 0.0<br/>samples = 1<br/>value = 141000.0>, fillcolor="#fbece2"] ;
265 -> 267 ;
268 [label=<BsmtFinSF1 &le; 214.0<br/>squared_error = 562500.0<br/>samples = 2<br/>value = 159250.0>, fillcolor="#fbe9dd"] ;
264 -> 268 ;
269 [label=<squared_error = 0.0<br/>samples = 1<br/>value = 158500.0>, fillcolor="#fbe9dd"] ;
268 -> 269 ;
270 [label=<squared_error = 0.0<br/>samples = 1<br/>value = 160000.0>, fillcolor="#fae9dd"] ;
268 -> 270 ;
271 [label=<TotalBsmtSF &le; 989.0<br/>squared_error = 591357735.804<br/>samples = 257<br/>value = 134408.113>, fillcolor="#fbeee4"] ;
3 -> 271 ;
272 [label=<GarageCars &le; 1.5<br/>squared_error = 431141880.351<br/>samples = 139<br/>value = 123239.381>, fillcolor="#fcf0e7"] ;
271 -> 272 ;
273 [label=<TotalBsmtSF &le; 639.0<br/>squared_error = 370169495.67<br/>samples = 87<br/>value = 115509.667>, fillcolor="#fcf1e9"] ;
272 -> 273 ;
274 [label=<OverallQual &le; 4.5<br/>squared_error = 301484166.667<br/>samples = 24<br/>value = 98600.0>, fillcolor="#fdf4ed"] ;
273 -> 274 ;
275 [label=<MoSold &le; 7.0<br/>squared_error = 27046875.0<br/>samples = 8<br/>value = 82625.0>, fillcolor="#fdf7f2"] ;
274 -> 275 ;
276 [label=<MSZoning_RL &le; 0.5<br/>squared_error = 13000000.0<br/>samples = 5<br/>value = 79500.0>, fillcolor="#fdf7f3"] ;
275 -> 276 ;
277 [label=<ExterCond_Gd &le; 0.5<br/>squared_error = 7388888.889<br/>samples = 3<br/>value = 77166.667>, fillcolor="#fdf8f3"] ;
276 -> 277 ;
278 [label=<1stFlrSF &le; 588.0<br/>squared_error = 62500.0<br/>samples = 2<br/>value = 75250.0>, fillcolor="#fef8f4"] ;
277 -> 278 ;
279 [label=<squared_error = 0.0<br/>samples = 1<br/>value = 75000.0>, fillcolor="#fef8f4"] ;
278 -> 279 ;
280 [label=<squared_error = 0.0<br/>samples = 1<br/>value = 75500.0>, fillcolor="#fef8f4"] ;
278 -> 280 ;
281 [label=<squared_error = 0.0<br/>samples = 1<br/>value = 81000.0>, fillcolor="#fdf7f2"] ;
277 -> 281 ;
282 [label=<HeatingQC_TA &le; 0.5<br/>squared_error = 1000000.0<br/>samples = 2<br/>value = 83000.0>, fillcolor="#fdf7f2"] ;
276 -> 282 ;
283 [label=<squared_error = 0.0<br/>samples = 1<br/>value = 84000.0>, fillcolor="#fdf6f1"] ;
282 -> 283 ;
284 [label=<squared_error = 0.0<br/>samples = 1<br/>value = 82000.0>, fillcolor="#fdf7f2"] ;
282 -> 284 ;
285 [label=<YrSold &le; 2008.0<br/>squared_error = 7055555.556<br/>samples = 3<br/>value = 87833.333>, fillcolor="#fdf6f0"] ;
275 -> 285 ;
286 [label=<squared_error = 0.0<br/>samples = 1<br/>value = 84500.0>, fillcolor="#fdf6f1"] ;
285 -> 286 ;
287 [label=<OverallCond &le; 4.5<br/>squared_error = 2250000.0<br/>samples = 2<br/>value = 89500.0>, fillcolor="#fdf5f0"] ;
285 -> 287 ;
288 [label=<squared_error = 0.0<br/>samples = 1<br/>value = 88000.0>, fillcolor="#fdf6f0"] ;
287 -> 288 ;
289 [label=<squared_error = 0.0<br/>samples = 1<br/>value = 91000.0>, fillcolor="#fdf5f0"] ;
287 -> 289 ;
290 [label=<TotRmsAbvGrd &le; 5.5<br/>squared_error = 247302343.75<br/>samples = 16<br/>value = 106587.5>, fillcolor="#fcf2eb"] ;
274 -> 290 ;
291 [label=<OverallCond &le; 5.5<br/>squared_error = 155667430.556<br/>samples = 12<br/>value = 100491.667>, fillcolor="#fdf4ed"] ;
290 -> 291 ;
292 [label=<BsmtFinSF1 &le; 64.5<br/>squared_error = 20238888.889<br/>samples = 6<br/>value = 90733.333>, fillcolor="#fdf5f0"] ;
291 -> 292 ;
293 [label=<GrLivArea &le; 934.5<br/>squared_error = 2722222.222<br/>samples = 3<br/>value = 94833.333>, fillcolor="#fdf5ef"] ;
292 -> 293 ;
294 [label=<squared_error = 0.0<br/>samples = 1<br/>value = 97000.0>, fillcolor="#fdf4ee"] ;
293 -> 294 ;
295 [label=<HalfBath &le; 0.5<br/>squared_error = 562500.0<br/>samples = 2<br/>value = 93750.0>, fillcolor="#fdf5ef"] ;
293 -> 295 ;
296 [label=<squared_error = 0.0<br/>samples = 1<br/>value = 93000.0>, fillcolor="#fdf5ef"] ;
295 -> 296 ;
297 [label=<squared_error = 0.0<br/>samples = 1<br/>value = 94500.0>, fillcolor="#fdf5ef"] ;
295 -> 297 ;
298 [label=<Id &le; 290.5<br/>squared_error = 4135555.556<br/>samples = 3<br/>value = 86633.333>, fillcolor="#fdf6f1"] ;
292 -> 298 ;
299 [label=<squared_error = 0.0<br/>samples = 1<br/>value = 89500.0>, fillcolor="#fdf5f0"] ;
298 -> 299 ;
300 [label=<BsmtFinSF1 &le; 258.0<br/>squared_error = 40000.0<br/>samples = 2<br/>value = 85200.0>, fillcolor="#fdf6f1"] ;
298 -> 300 ;
301 [label=<squared_error = 0.0<br/>samples = 1<br/>value = 85000.0>, fillcolor="#fdf6f1"] ;
300 -> 301 ;
302 [label=<squared_error = 0.0<br/>samples = 1<br/>value = 85400.0>, fillcolor="#fdf6f1"] ;
300 -> 302 ;
303 [label=<WoodDeckSF &le; 33.0<br/>squared_error = 100645833.333<br/>samples = 6<br/>value = 110250.0>, fillcolor="#fcf2ea"] ;
291 -> 303 ;
304 [label=<GarageCars &le; 0.5<br/>squared_error = 48722222.222<br/>samples = 3<br/>value = 101833.333>, fillcolor="#fdf3ed"] ;
303 -> 304 ;
305 [label=<squared_error = 0.0<br/>samples = 1<br/>value = 92000.0>, fillcolor="#fdf5ef"] ;
304 -> 305 ;
306 [label=<MSZoning_RL &le; 0.5<br/>squared_error = 562500.0<br/>samples = 2<br/>value = 106750.0>, fillcolor="#fcf2eb"] ;
304 -> 306 ;
307 [label=<squared_error = 0.0<br/>samples = 1<br/>value = 106000.0>, fillcolor="#fcf3eb"] ;
306 -> 307 ;
308 [label=<squared_error = 0.0<br/>samples = 1<br/>value = 107500.0>, fillcolor="#fcf2eb"] ;
306 -> 308 ;
309 [label=<BsmtFullBath &le; 0.5<br/>squared_error = 10888888.889<br/>samples = 3<br/>value = 118666.667>, fillcolor="#fcf0e8"] ;
303 -> 309 ;
310 [label=<OverallQual &le; 5.5<br/>squared_error = 2250000.0<br/>samples = 2<br/>value = 116500.0>, fillcolor="#fcf1e9"] ;
309 -> 310 ;
311 [label=<squared_error = 0.0<br/>samples = 1<br/>value = 115000.0>, fillcolor="#fcf1e9"] ;
310 -> 311 ;
312 [label=<squared_error = 0.0<br/>samples = 1<br/>value = 118000.0>, fillcolor="#fcf0e8"] ;
310 -> 312 ;
313 [label=<squared_error = 0.0<br/>samples = 1<br/>value = 123000.0>, fillcolor="#fcf0e7"] ;
309 -> 313 ;
314 [label=<MSSubClass &le; 175.0<br/>squared_error = 76296875.0<br/>samples = 4<br/>value = 124875.0>, fillcolor="#fcefe6"] ;
290 -> 314 ;
315 [label=<WoodDeckSF &le; 150.5<br/>squared_error = 55555.556<br/>samples = 3<br/>value = 119833.333>, fillcolor="#fcf0e8"] ;
314 -> 315 ;
316 [label=<squared_error = 0.0<br/>samples = 2<br/>value = 120000.0>, fillcolor="#fcf0e8"] ;
315 -> 316 ;
317 [label=<squared_error = 0.0<br/>samples = 1<br/>value = 119500.0>, fillcolor="#fcf0e8"] ;
315 -> 317 ;
318 [label=<squared_error = 0.0<br/>samples = 1<br/>value = 140000.0>, fillcolor="#fbede2"] ;
314 -> 318 ;
319 [label=<OverallCond &le; 7.5<br/>squared_error = 245910519.39<br/>samples = 63<br/>value = 121951.444>, fillcolor="#fcf0e7"] ;
273 -> 319 ;
320 [label=<GarageArea &le; 120.0<br/>squared_error = 216944610.104<br/>samples = 56<br/>value = 119529.304>, fillcolor="#fcf0e8"] ;
319 -> 320 ;
321 [label=<BsmtFullBath &le; 0.5<br/>squared_error = 187176835.938<br/>samples = 8<br/>value = 106331.25>, fillcolor="#fcf3eb"] ;
320 -> 321 ;
322 [label=<Id &le; 226.0<br/>squared_error = 95650400.0<br/>samples = 5<br/>value = 98240.0>, fillcolor="#fdf4ee"] ;
321 -> 322 ;
323 [label=<SaleType_ConLI &le; 0.5<br/>squared_error = 34810000.0<br/>samples = 2<br/>value = 109100.0>, fillcolor="#fcf2eb"] ;
322 -> 323 ;
324 [label=<squared_error = 0.0<br/>samples = 1<br/>value = 103200.0>, fillcolor="#fdf3ec"] ;
323 -> 324 ;
325 [label=<squared_error = 0.0<br/>samples = 1<br/>value = 115000.0>, fillcolor="#fcf1e9"] ;
323 -> 325 ;
326 [label=<Id &le; 710.0<br/>squared_error = 5166666.667<br/>samples = 3<br/>value = 91000.0>, fillcolor="#fdf5f0"] ;
322 -> 326 ;
327 [label=<squared_error = 0.0<br/>samples = 1<br/>value = 88000.0>, fillcolor="#fdf6f0"] ;
326 -> 327 ;
328 [label=<LotArea &le; 6196.0<br/>squared_error = 1000000.0<br/>samples = 2<br/>value = 92500.0>, fillcolor="#fdf5ef"] ;
326 -> 328 ;
329 [label=<squared_error = 0.0<br/>samples = 1<br/>value = 91500.0>, fillcolor="#fdf5ef"] ;
328 -> 329 ;
330 [label=<squared_error = 0.0<br/>samples = 1<br/>value = 93500.0>, fillcolor="#fdf5ef"] ;
328 -> 330 ;
331 [label=<OverallQual &le; 4.5<br/>squared_error = 48750555.556<br/>samples = 3<br/>value = 119816.667>, fillcolor="#fcf0e8"] ;
321 -> 331 ;
332 [label=<squared_error = 0.0<br/>samples = 1<br/>value = 128950.0>, fillcolor="#fcefe5"] ;
331 -> 332 ;
333 [label=<YearRemodAdd &le; 1987.5<br/>squared_error = 10562500.0<br/>samples = 2<br/>value = 115250.0>, fillcolor="#fcf1e9"] ;
331 -> 333 ;
334 [label=<squared_error = 0.0<br/>samples = 1<br/>value = 112000.0>, fillcolor="#fcf2ea"] ;
333 -> 334 ;
335 [label=<squared_error = 0.0<br/>samples = 1<br/>value = 118500.0>, fillcolor="#fcf0e8"] ;
333 -> 335 ;
336 [label=<MoSold &le; 11.5<br/>squared_error = 188035896.729<br/>samples = 48<br/>value = 121728.979>, fillcolor="#fcf0e7"] ;
320 -> 336 ;
337 [label=<BsmtUnfSF &le; 296.5<br/>squared_error = 118018320.076<br/>samples = 46<br/>value = 122991.478>, fillcolor="#fcf0e7"] ;
336 -> 337 ;
338 [label=<LotArea &le; 11809.0<br/>squared_error = 55199007.561<br/>samples = 23<br/>value = 128115.217>, fillcolor="#fcefe5"] ;
337 -> 338 ;
339 [label=<FullBath &le; 1.5<br/>squared_error = 43290272.109<br/>samples = 21<br/>value = 126935.714>, fillcolor="#fcefe6"] ;
338 -> 339 ;
340 [label=<1stFlrSF &le; 977.0<br/>squared_error = 28724362.881<br/>samples = 19<br/>value = 125639.474>, fillcolor="#fcefe6"] ;
339 -> 340 ;
341 [label=<Id &le; 918.5<br/>squared_error = 20697646.484<br/>samples = 16<br/>value = 124203.125>, fillcolor="#fcefe6"] ;
340 -> 341 ;
342 [label=<LotArea &le; 8810.5<br/>squared_error = 3357283.951<br/>samples = 9<br/>value = 126427.778>, fillcolor="#fcefe6"] ;
341 -> 342 ;
343 [label=<Id &le; 55.0<br/>squared_error = 651388.889<br/>samples = 6<br/>value = 125316.667>, fillcolor="#fcefe6"] ;
342 -> 343 ;
344 [label=<squared_error = 0.0<br/>samples = 1<br/>value = 127000.0>, fillcolor="#fcefe6"] ;
343 -> 344 ;
345 [label=<LotArea &le; 6674.0<br/>squared_error = 101600.0<br/>samples = 5<br/>value = 124980.0>, fillcolor="#fcefe6"] ;
343 -> 345 ;
346 [label=<squared_error = 0.0<br/>samples = 1<br/>value = 125500.0>, fillcolor="#fcefe6"] ;
345 -> 346 ;
347 [label=<BsmtFinSF1 &le; 584.5<br/>squared_error = 42500.0<br/>samples = 4<br/>value = 124850.0>, fillcolor="#fcefe6"] ;
345 -> 347 ;
348 [label=<squared_error = 0.0<br/>samples = 1<br/>value = 124500.0>, fillcolor="#fcefe6"] ;
347 -> 348 ;
349 [label=<OverallCond &le; 6.0<br/>squared_error = 2222.222<br/>samples = 3<br/>value = 124966.667>, fillcolor="#fcefe6"] ;
347 -> 349 ;
350 [label=<squared_error = 0.0<br/>samples = 2<br/>value = 125000.0>, fillcolor="#fcefe6"] ;
349 -> 350 ;
351 [label=<squared_error = 0.0<br/>samples = 1<br/>value = 124900.0>, fillcolor="#fcefe6"] ;
349 -> 351 ;
352 [label=<1stFlrSF &le; 916.0<br/>squared_error = 1361666.667<br/>samples = 3<br/>value = 128650.0>, fillcolor="#fcefe5"] ;
342 -> 352 ;
353 [label=<Neighborhood_CollgCr &le; 0.5<br/>squared_error = 122500.0<br/>samples = 2<br/>value = 127850.0>, fillcolor="#fcefe5"] ;
352 -> 353 ;
354 [label=<squared_error = 0.0<br/>samples = 1<br/>value = 127500.0>, fillcolor="#fcefe6"] ;
353 -> 354 ;
355 [label=<squared_error = 0.0<br/>samples = 1<br/>value = 128200.0>, fillcolor="#fcefe5"] ;
353 -> 355 ;
356 [label=<squared_error = 0.0<br/>samples = 1<br/>value = 130250.0>, fillcolor="#fceee5"] ;
352 -> 356 ;
357 [label=<TotalBsmtSF &le; 846.0<br/>squared_error = 28448163.265<br/>samples = 7<br/>value = 121342.857>, fillcolor="#fcf0e7"] ;
341 -> 357 ;
358 [label=<BsmtFinSF2 &le; 313.5<br/>squared_error = 202500.0<br/>samples = 2<br/>value = 129450.0>, fillcolor="#fceee5"] ;
357 -> 358 ;
359 [label=<squared_error = 0.0<br/>samples = 1<br/>value = 129900.0>, fillcolor="#fceee5"] ;
358 -> 359 ;
360 [label=<squared_error = 0.0<br/>samples = 1<br/>value = 129000.0>, fillcolor="#fcefe5"] ;
358 -> 360 ;
361 [label=<BsmtUnfSF &le; 60.5<br/>squared_error = 2940000.0<br/>samples = 5<br/>value = 118100.0>, fillcolor="#fcf0e8"] ;
357 -> 361 ;
362 [label=<squared_error = 0.0<br/>samples = 1<br/>value = 115000.0>, fillcolor="#fcf1e9"] ;
361 -> 362 ;
363 [label=<Id &le; 1017.0<br/>squared_error = 671875.0<br/>samples = 4<br/>value = 118875.0>, fillcolor="#fcf0e8"] ;
361 -> 363 ;
364 [label=<squared_error = 0.0<br/>samples = 1<br/>value = 117500.0>, fillcolor="#fcf1e8"] ;
363 -> 364 ;
365 [label=<Exterior2nd_Wd Sdng &le; 0.5<br/>squared_error = 55555.556<br/>samples = 3<br/>value = 119333.333>, fillcolor="#fcf0e8"] ;
363 -> 365 ;
366 [label=<squared_error = 0.0<br/>samples = 2<br/>value = 119500.0>, fillcolor="#fcf0e8"] ;
365 -> 366 ;
367 [label=<squared_error = 0.0<br/>samples = 1<br/>value = 119000.0>, fillcolor="#fcf0e8"] ;
365 -> 367 ;
368 [label=<BsmtUnfSF &le; 240.0<br/>squared_error = 1846666.667<br/>samples = 3<br/>value = 133300.0>, fillcolor="#fbeee4"] ;
340 -> 368 ;
369 [label=<RoofStyle_Gable &le; 0.5<br/>squared_error = 62500.0<br/>samples = 2<br/>value = 134250.0>, fillcolor="#fbeee4"] ;
368 -> 369 ;
370 [label=<squared_error = 0.0<br/>samples = 1<br/>value = 134000.0>, fillcolor="#fbeee4"] ;
369 -> 370 ;
371 [label=<squared_error = 0.0<br/>samples = 1<br/>value = 134500.0>, fillcolor="#fbeee4"] ;
369 -> 371 ;
372 [label=<squared_error = 0.0<br/>samples = 1<br/>value = 131400.0>, fillcolor="#fceee4"] ;
368 -> 372 ;
373 [label=<GrLivArea &le; 951.5<br/>squared_error = 14062500.0<br/>samples = 2<br/>value = 139250.0>, fillcolor="#fbede2"] ;
339 -> 373 ;
374 [label=<squared_error = 0.0<br/>samples = 1<br/>value = 143000.0>, fillcolor="#fbece1"] ;
373 -> 374 ;
375 [label=<squared_error = 0.0<br/>samples = 1<br/>value = 135500.0>, fillcolor="#fbede3"] ;
373 -> 375 ;
376 [label=<LotConfig_Inside &le; 0.5<br/>squared_error = 12250000.0<br/>samples = 2<br/>value = 140500.0>, fillcolor="#fbede2"] ;
338 -> 376 ;
377 [label=<squared_error = 0.0<br/>samples = 1<br/>value = 137000.0>, fillcolor="#fbede3"] ;
376 -> 377 ;
378 [label=<squared_error = 0.0<br/>samples = 1<br/>value = 144000.0>, fillcolor="#fbece1"] ;
376 -> 378 ;
379 [label=<OverallCond &le; 5.5<br/>squared_error = 128332227.236<br/>samples = 23<br/>value = 117867.739>, fillcolor="#fcf0e8"] ;
337 -> 379 ;
380 [label=<TotalBsmtSF &le; 878.0<br/>squared_error = 48700306.122<br/>samples = 7<br/>value = 107542.857>, fillcolor="#fcf2eb"] ;
379 -> 380 ;
381 [label=<GrLivArea &le; 878.0<br/>squared_error = 5337968.75<br/>samples = 4<br/>value = 112512.5>, fillcolor="#fcf1ea"] ;
380 -> 381 ;
382 [label=<squared_error = 0.0<br/>samples = 1<br/>value = 116050.0>, fillcolor="#fcf1e9"] ;
381 -> 382 ;
383 [label=<LotArea &le; 5683.5<br/>squared_error = 1555555.556<br/>samples = 3<br/>value = 111333.333>, fillcolor="#fcf2ea"] ;
381 -> 383 ;
384 [label=<squared_error = 0.0<br/>samples = 1<br/>value = 113000.0>, fillcolor="#fcf1ea"] ;
383 -> 384 ;
385 [label=<LandContour_Lvl &le; 0.5<br/>squared_error = 250000.0<br/>samples = 2<br/>value = 110500.0>, fillcolor="#fcf2ea"] ;
383 -> 385 ;
386 [label=<squared_error = 0.0<br/>samples = 1<br/>value = 111000.0>, fillcolor="#fcf2ea"] ;
385 -> 386 ;
387 [label=<squared_error = 0.0<br/>samples = 1<br/>value = 110000.0>, fillcolor="#fcf2ea"] ;
385 -> 387 ;
388 [label=<Exterior2nd_Plywood &le; 0.5<br/>squared_error = 29680555.556<br/>samples = 3<br/>value = 100916.667>, fillcolor="#fdf3ed"] ;
380 -> 388 ;
389 [label=<Neighborhood_NAmes &le; 0.5<br/>squared_error = 6890625.0<br/>samples = 2<br/>value = 97375.0>, fillcolor="#fdf4ee"] ;
388 -> 389 ;
390 [label=<squared_error = 0.0<br/>samples = 1<br/>value = 94750.0>, fillcolor="#fdf5ef"] ;
389 -> 390 ;
391 [label=<squared_error = 0.0<br/>samples = 1<br/>value = 100000.0>, fillcolor="#fdf4ed"] ;
389 -> 391 ;
392 [label=<squared_error = 0.0<br/>samples = 1<br/>value = 108000.0>, fillcolor="#fcf2eb"] ;
388 -> 392 ;
393 [label=<BsmtFinSF1 &le; 341.0<br/>squared_error = 96127781.484<br/>samples = 16<br/>value = 122384.875>, fillcolor="#fcf0e7"] ;
379 -> 393 ;
394 [label=<1stFlrSF &le; 932.0<br/>squared_error = 85601754.469<br/>samples = 9<br/>value = 116906.444>, fillcolor="#fcf1e8"] ;
393 -> 394 ;
395 [label=<BsmtHalfBath &le; 0.5<br/>squared_error = 18907550.694<br/>samples = 7<br/>value = 112486.857>, fillcolor="#fcf1ea"] ;
394 -> 395 ;
396 [label=<GrLivArea &le; 926.0<br/>squared_error = 2314794.24<br/>samples = 5<br/>value = 109881.6>, fillcolor="#fcf2ea"] ;
395 -> 396 ;
397 [label=<YearBuilt &le; 1964.0<br/>squared_error = 750987.0<br/>samples = 4<br/>value = 109227.0>, fillcolor="#fcf2eb"] ;
396 -> 397 ;
398 [label=<Id &le; 608.5<br/>squared_error = 306916.0<br/>samples = 2<br/>value = 108454.0>, fillcolor="#fcf2eb"] ;
397 -> 398 ;
399 [label=<squared_error = 0.0<br/>samples = 1<br/>value = 109008.0>, fillcolor="#fcf2eb"] ;
398 -> 399 ;
400 [label=<squared_error = 0.0<br/>samples = 1<br/>value = 107900.0>, fillcolor="#fcf2eb"] ;
398 -> 400 ;
401 [label=<squared_error = 0.0<br/>samples = 2<br/>value = 110000.0>, fillcolor="#fcf2ea"] ;
397 -> 401 ;
402 [label=<squared_error = 0.0<br/>samples = 1<br/>value = 112500.0>, fillcolor="#fcf1ea"] ;
396 -> 402 ;
403 [label=<Exterior1st_HdBoard &le; 0.5<br/>squared_error = 1000000.0<br/>samples = 2<br/>value = 119000.0>, fillcolor="#fcf0e8"] ;
395 -> 403 ;
404 [label=<squared_error = 0.0<br/>samples = 1<br/>value = 120000.0>, fillcolor="#fcf0e8"] ;
403 -> 404 ;
405 [label=<squared_error = 0.0<br/>samples = 1<br/>value = 118000.0>, fillcolor="#fcf0e8"] ;
403 -> 405 ;
406 [label=<YrSold &le; 2009.0<br/>squared_error = 11390625.0<br/>samples = 2<br/>value = 132375.0>, fillcolor="#fbeee4"] ;
394 -> 406 ;
407 [label=<squared_error = 0.0<br/>samples = 1<br/>value = 135750.0>, fillcolor="#fbede3"] ;
406 -> 407 ;
408 [label=<squared_error = 0.0<br/>samples = 1<br/>value = 129000.0>, fillcolor="#fcefe5"] ;
406 -> 408 ;
409 [label=<KitchenQual_Gd &le; 0.5<br/>squared_error = 21459183.673<br/>samples = 7<br/>value = 129428.571>, fillcolor="#fceee5"] ;
393 -> 409 ;
410 [label=<Exterior2nd_Plywood &le; 0.5<br/>squared_error = 7750000.0<br/>samples = 6<br/>value = 131000.0>, fillcolor="#fceee5"] ;
409 -> 410 ;
411 [label=<LotShape_Reg &le; 0.5<br/>squared_error = 3421875.0<br/>samples = 4<br/>value = 129375.0>, fillcolor="#fceee5"] ;
410 -> 411 ;
412 [label=<YrSold &le; 2007.0<br/>squared_error = 562500.0<br/>samples = 2<br/>value = 127750.0>, fillcolor="#fcefe5"] ;
411 -> 412 ;
413 [label=<squared_error = 0.0<br/>samples = 1<br/>value = 128500.0>, fillcolor="#fcefe5"] ;
412 -> 413 ;
414 [label=<squared_error = 0.0<br/>samples = 1<br/>value = 127000.0>, fillcolor="#fcefe6"] ;
412 -> 414 ;
415 [label=<Id &le; 890.0<br/>squared_error = 1000000.0<br/>samples = 2<br/>value = 131000.0>, fillcolor="#fceee5"] ;
411 -> 415 ;
416 [label=<squared_error = 0.0<br/>samples = 1<br/>value = 132000.0>, fillcolor="#fbeee4"] ;
415 -> 416 ;
417 [label=<squared_error = 0.0<br/>samples = 1<br/>value = 130000.0>, fillcolor="#fceee5"] ;
415 -> 417 ;
418 [label=<Condition1_Norm &le; 0.5<br/>squared_error = 562500.0<br/>samples = 2<br/>value = 134250.0>, fillcolor="#fbeee4"] ;
410 -> 418 ;
419 [label=<squared_error = 0.0<br/>samples = 1<br/>value = 135000.0>, fillcolor="#fbede3"] ;
418 -> 419 ;
420 [label=<squared_error = 0.0<br/>samples = 1<br/>value = 133500.0>, fillcolor="#fbeee4"] ;
418 -> 420 ;
421 [label=<squared_error = 0.0<br/>samples = 1<br/>value = 120000.0>, fillcolor="#fcf0e8"] ;
409 -> 421 ;
422 [label=<Exterior2nd_HdBoard &le; 0.5<br/>squared_error = 918605172.25<br/>samples = 2<br/>value = 92691.5>, fillcolor="#fdf5ef"] ;
336 -> 422 ;
423 [label=<squared_error = 0.0<br/>samples = 1<br/>value = 62383.0>, fillcolor="#fefaf7"] ;
422 -> 423 ;
424 [label=<squared_error = 0.0<br/>samples = 1<br/>value = 123000.0>, fillcolor="#fcf0e7"] ;
422 -> 424 ;
425 [label=<GrLivArea &le; 888.0<br/>squared_error = 55230612.245<br/>samples = 7<br/>value = 141328.571>, fillcolor="#fbece2"] ;
319 -> 425 ;
426 [label=<Id &le; 1140.5<br/>squared_error = 6035555.556<br/>samples = 3<br/>value = 133633.333>, fillcolor="#fbeee4"] ;
425 -> 426 ;
427 [label=<ExterQual_TA &le; 0.5<br/>squared_error = 1690000.0<br/>samples = 2<br/>value = 135200.0>, fillcolor="#fbede3"] ;
426 -> 427 ;
428 [label=<squared_error = 0.0<br/>samples = 1<br/>value = 136500.0>, fillcolor="#fbede3"] ;
427 -> 428 ;
429 [label=<squared_error = 0.0<br/>samples = 1<br/>value = 133900.0>, fillcolor="#fbeee4"] ;
427 -> 429 ;
430 [label=<squared_error = 0.0<br/>samples = 1<br/>value = 130500.0>, fillcolor="#fceee5"] ;
426 -> 430 ;
431 [label=<BsmtUnfSF &le; 235.0<br/>squared_error = 14405000.0<br/>samples = 4<br/>value = 147100.0>, fillcolor="#fbebe0"] ;
425 -> 431 ;
432 [label=<Condition1_Feedr &le; 0.5<br/>squared_error = 2250000.0<br/>samples = 2<br/>value = 143500.0>, fillcolor="#fbece1"] ;
431 -> 432 ;
433 [label=<squared_error = 0.0<br/>samples = 1<br/>value = 145000.0>, fillcolor="#fbece1"] ;
432 -> 433 ;
434 [label=<squared_error = 0.0<br/>samples = 1<br/>value = 142000.0>, fillcolor="#fbece2"] ;
432 -> 434 ;
435 [label=<GarageArea &le; 314.5<br/>squared_error = 640000.0<br/>samples = 2<br/>value = 150700.0>, fillcolor="#fbebdf"] ;
431 -> 435 ;
436 [label=<squared_error = 0.0<br/>samples = 1<br/>value = 151500.0>, fillcolor="#fbebdf"] ;
435 -> 436 ;
437 [label=<squared_error = 0.0<br/>samples = 1<br/>value = 149900.0>, fillcolor="#fbebdf"] ;
435 -> 437 ;
438 [label=<OverallQual &le; 5.5<br/>squared_error = 265942398.128<br/>samples = 52<br/>value = 136171.788>, fillcolor="#fbede3"] ;
272 -> 438 ;
439 [label=<YearRemodAdd &le; 1971.5<br/>squared_error = 171306354.454<br/>samples = 33<br/>value = 129730.303>, fillcolor="#fceee5"] ;
438 -> 439 ;
440 [label=<LotConfig_FR2 &le; 0.5<br/>squared_error = 117138367.347<br/>samples = 14<br/>value = 119414.286>, fillcolor="#fcf0e8"] ;
439 -> 440 ;
441 [label=<GarageArea &le; 546.0<br/>squared_error = 62566115.702<br/>samples = 11<br/>value = 122954.545>, fillcolor="#fcf0e7"] ;
440 -> 441 ;
442 [label=<LandContour_Lvl &le; 0.5<br/>squared_error = 39388888.889<br/>samples = 6<br/>value = 117166.667>, fillcolor="#fcf1e8"] ;
441 -> 442 ;
443 [label=<RoofStyle_Gable &le; 0.5<br/>squared_error = 2000000.0<br/>samples = 3<br/>value = 111000.0>, fillcolor="#fcf2ea"] ;
442 -> 443 ;
444 [label=<squared_error = 0.0<br/>samples = 1<br/>value = 113000.0>, fillcolor="#fcf1ea"] ;
443 -> 444 ;
445 [label=<squared_error = 0.0<br/>samples = 2<br/>value = 110000.0>, fillcolor="#fcf2ea"] ;
443 -> 445 ;
446 [label=<OverallCond &le; 6.0<br/>squared_error = 722222.222<br/>samples = 3<br/>value = 123333.333>, fillcolor="#fcf0e7"] ;
442 -> 446 ;
447 [label=<OverallQual &le; 4.5<br/>squared_error = 62500.0<br/>samples = 2<br/>value = 122750.0>, fillcolor="#fcf0e7"] ;
446 -> 447 ;
448 [label=<squared_error = 0.0<br/>samples = 1<br/>value = 123000.0>, fillcolor="#fcf0e7"] ;
447 -> 448 ;
449 [label=<squared_error = 0.0<br/>samples = 1<br/>value = 122500.0>, fillcolor="#fcf0e7"] ;
447 -> 449 ;
450 [label=<squared_error = 0.0<br/>samples = 1<br/>value = 124500.0>, fillcolor="#fcefe6"] ;
446 -> 450 ;
451 [label=<ScreenPorch &le; 96.0<br/>squared_error = 1940000.0<br/>samples = 5<br/>value = 129900.0>, fillcolor="#fceee5"] ;
441 -> 451 ;
452 [label=<BsmtUnfSF &le; 155.0<br/>squared_error = 312500.0<br/>samples = 4<br/>value = 129250.0>, fillcolor="#fceee5"] ;
451 -> 452 ;
453 [label=<Id &le; 301.5<br/>squared_error = 62500.0<br/>samples = 2<br/>value = 129750.0>, fillcolor="#fceee5"] ;
452 -> 453 ;
454 [label=<squared_error = 0.0<br/>samples = 1<br/>value = 130000.0>, fillcolor="#fceee5"] ;
453 -> 454 ;
455 [label=<squared_error = 0.0<br/>samples = 1<br/>value = 129500.0>, fillcolor="#fceee5"] ;
453 -> 455 ;
456 [label=<Exterior2nd_HdBoard &le; 0.5<br/>squared_error = 62500.0<br/>samples = 2<br/>value = 128750.0>, fillcolor="#fcefe5"] ;
452 -> 456 ;
457 [label=<squared_error = 0.0<br/>samples = 1<br/>value = 128500.0>, fillcolor="#fcefe5"] ;
456 -> 457 ;
458 [label=<squared_error = 0.0<br/>samples = 1<br/>value = 129000.0>, fillcolor="#fcefe5"] ;
456 -> 458 ;
459 [label=<squared_error = 0.0<br/>samples = 1<br/>value = 132500.0>, fillcolor="#fbeee4"] ;
451 -> 459 ;
460 [label=<BsmtFinSF1 &le; 570.0<br/>squared_error = 102775555.556<br/>samples = 3<br/>value = 106433.333>, fillcolor="#fcf2eb"] ;
440 -> 460 ;
461 [label=<MSSubClass &le; 55.0<br/>squared_error = 5760000.0<br/>samples = 2<br/>value = 99400.0>, fillcolor="#fdf4ed"] ;
460 -> 461 ;
462 [label=<squared_error = 0.0<br/>samples = 1<br/>value = 97000.0>, fillcolor="#fdf4ee"] ;
461 -> 462 ;
463 [label=<squared_error = 0.0<br/>samples = 1<br/>value = 101800.0>, fillcolor="#fdf3ed"] ;
461 -> 463 ;
464 [label=<squared_error = 0.0<br/>samples = 1<br/>value = 120500.0>, fillcolor="#fcf0e7"] ;
460 -> 464 ;
465 [label=<BsmtFinSF1 &le; 239.0<br/>squared_error = 75025318.56<br/>samples = 19<br/>value = 137331.579>, fillcolor="#fbede3"] ;
439 -> 465 ;
466 [label=<Exterior1st_MetalSd &le; 0.5<br/>squared_error = 20250000.0<br/>samples = 2<br/>value = 120500.0>, fillcolor="#fcf0e7"] ;
465 -> 466 ;
467 [label=<squared_error = 0.0<br/>samples = 1<br/>value = 116000.0>, fillcolor="#fcf1e9"] ;
466 -> 467 ;
468 [label=<squared_error = 0.0<br/>samples = 1<br/>value = 125000.0>, fillcolor="#fcefe6"] ;
466 -> 468 ;
469 [label=<Foundation_CBlock &le; 0.5<br/>squared_error = 44218685.121<br/>samples = 17<br/>value = 139311.765>, fillcolor="#fbede2"] ;
465 -> 469 ;
470 [label=<OpenPorchSF &le; 14.0<br/>squared_error = 7076875.0<br/>samples = 4<br/>value = 146475.0>, fillcolor="#fbebe0"] ;
469 -> 470 ;
471 [label=<MSSubClass &le; 52.5<br/>squared_error = 902500.0<br/>samples = 2<br/>value = 148950.0>, fillcolor="#fbebe0"] ;
470 -> 471 ;
472 [label=<squared_error = 0.0<br/>samples = 1<br/>value = 149900.0>, fillcolor="#fbebdf"] ;
471 -> 472 ;
473 [label=<squared_error = 0.0<br/>samples = 1<br/>value = 148000.0>, fillcolor="#fbebe0"] ;
471 -> 473 ;
474 [label=<LotArea &le; 8895.0<br/>squared_error = 1000000.0<br/>samples = 2<br/>value = 144000.0>, fillcolor="#fbece1"] ;
470 -> 474 ;
475 [label=<squared_error = 0.0<br/>samples = 1<br/>value = 145000.0>, fillcolor="#fbece1"] ;
474 -> 475 ;
476 [label=<squared_error = 0.0<br/>samples = 1<br/>value = 143000.0>, fillcolor="#fbece1"] ;
474 -> 476 ;
477 [label=<MoSold &le; 8.5<br/>squared_error = 35000710.059<br/>samples = 13<br/>value = 137107.692>, fillcolor="#fbede3"] ;
469 -> 477 ;
478 [label=<BsmtFinSF1 &le; 732.0<br/>squared_error = 14613333.333<br/>samples = 9<br/>value = 133933.333>, fillcolor="#fbeee4"] ;
477 -> 478 ;
479 [label=<YrSold &le; 2008.5<br/>squared_error = 6119843.75<br/>samples = 8<br/>value = 132862.5>, fillcolor="#fbeee4"] ;
478 -> 479 ;
480 [label=<MoSold &le; 6.5<br/>squared_error = 1312500.0<br/>samples = 4<br/>value = 130750.0>, fillcolor="#fceee5"] ;
479 -> 480 ;
481 [label=<YearRemodAdd &le; 1993.0<br/>squared_error = 388888.889<br/>samples = 3<br/>value = 130166.667>, fillcolor="#fceee5"] ;
480 -> 481 ;
482 [label=<squared_error = 0.0<br/>samples = 1<br/>value = 131000.0>, fillcolor="#fceee5"] ;
481 -> 482 ;
483 [label=<YearRemodAdd &le; 2004.5<br/>squared_error = 62500.0<br/>samples = 2<br/>value = 129750.0>, fillcolor="#fceee5"] ;
481 -> 483 ;
484 [label=<squared_error = 0.0<br/>samples = 1<br/>value = 130000.0>, fillcolor="#fceee5"] ;
483 -> 484 ;
485 [label=<squared_error = 0.0<br/>samples = 1<br/>value = 129500.0>, fillcolor="#fceee5"] ;
483 -> 485 ;
486 [label=<squared_error = 0.0<br/>samples = 1<br/>value = 132500.0>, fillcolor="#fbeee4"] ;
480 -> 486 ;
487 [label=<Exterior2nd_HdBoard &le; 0.5<br/>squared_error = 2001875.0<br/>samples = 4<br/>value = 134975.0>, fillcolor="#fbede3"] ;
479 -> 487 ;
488 [label=<Id &le; 1089.0<br/>squared_error = 846666.667<br/>samples = 3<br/>value = 134300.0>, fillcolor="#fbeee4"] ;
487 -> 488 ;
489 [label=<BsmtFullBath &le; 0.5<br/>squared_error = 2500.0<br/>samples = 2<br/>value = 134950.0>, fillcolor="#fbede3"] ;
488 -> 489 ;
490 [label=<squared_error = 0.0<br/>samples = 1<br/>value = 135000.0>, fillcolor="#fbede3"] ;
489 -> 490 ;
491 [label=<squared_error = 0.0<br/>samples = 1<br/>value = 134900.0>, fillcolor="#fbeee4"] ;
489 -> 491 ;
492 [label=<squared_error = 0.0<br/>samples = 1<br/>value = 133000.0>, fillcolor="#fbeee4"] ;
488 -> 492 ;
493 [label=<squared_error = 0.0<br/>samples = 1<br/>value = 137000.0>, fillcolor="#fbede3"] ;
487 -> 493 ;
494 [label=<squared_error = 0.0<br/>samples = 1<br/>value = 142500.0>, fillcolor="#fbece1"] ;
478 -> 494 ;
495 [label=<GrLivArea &le; 1241.5<br/>squared_error = 7187500.0<br/>samples = 4<br/>value = 144250.0>, fillcolor="#fbece1"] ;
477 -> 495 ;
496 [label=<LotConfig_CulDSac &le; 0.5<br/>squared_error = 1555555.556<br/>samples = 3<br/>value = 145666.667>, fillcolor="#fbece1"] ;
495 -> 496 ;
497 [label=<TotRmsAbvGrd &le; 5.5<br/>squared_error = 250000.0<br/>samples = 2<br/>value = 146500.0>, fillcolor="#fbebe0"] ;
496 -> 497 ;
498 [label=<squared_error = 0.0<br/>samples = 1<br/>value = 147000.0>, fillcolor="#fbebe0"] ;
497 -> 498 ;
499 [label=<squared_error = 0.0<br/>samples = 1<br/>value = 146000.0>, fillcolor="#fbece0"] ;
497 -> 499 ;
500 [label=<squared_error = 0.0<br/>samples = 1<br/>value = 144000.0>, fillcolor="#fbece1"] ;
496 -> 500 ;
501 [label=<squared_error = 0.0<br/>samples = 1<br/>value = 140000.0>, fillcolor="#fbede2"] ;
495 -> 501 ;
502 [label=<LandSlope_Mod &le; 0.5<br/>squared_error = 233076101.391<br/>samples = 19<br/>value = 147359.632>, fillcolor="#fbebe0"] ;
438 -> 502 ;
503 [label=<OpenPorchSF &le; 124.0<br/>squared_error = 143270618.25<br/>samples = 18<br/>value = 149685.167>, fillcolor="#fbebdf"] ;
502 -> 503 ;
504 [label=<YrSold &le; 2006.5<br/>squared_error = 58963733.333<br/>samples = 15<br/>value = 146060.0>, fillcolor="#fbece0"] ;
503 -> 504 ;
505 [label=<YearBuilt &le; 1962.5<br/>squared_error = 3780000.0<br/>samples = 3<br/>value = 156800.0>, fillcolor="#fbeadd"] ;
504 -> 505 ;
506 [label=<squared_error = 0.0<br/>samples = 1<br/>value = 159500.0>, fillcolor="#fbe9dd"] ;
505 -> 506 ;
507 [label=<WoodDeckSF &le; 164.0<br/>squared_error = 202500.0<br/>samples = 2<br/>value = 155450.0>, fillcolor="#fbeade"] ;
505 -> 507 ;
508 [label=<squared_error = 0.0<br/>samples = 1<br/>value = 155900.0>, fillcolor="#fbeade"] ;
507 -> 508 ;
509 [label=<squared_error = 0.0<br/>samples = 1<br/>value = 155000.0>, fillcolor="#fbeade"] ;
507 -> 509 ;
510 [label=<Id &le; 549.5<br/>squared_error = 36713541.667<br/>samples = 12<br/>value = 143375.0>, fillcolor="#fbece1"] ;
504 -> 510 ;
511 [label=<WoodDeckSF &le; 74.5<br/>squared_error = 14888888.889<br/>samples = 3<br/>value = 150666.667>, fillcolor="#fbebdf"] ;
510 -> 511 ;
512 [label=<squared_error = 0.0<br/>samples = 1<br/>value = 156000.0>, fillcolor="#fbeade"] ;
511 -> 512 ;
513 [label=<Foundation_PConc &le; 0.5<br/>squared_error = 1000000.0<br/>samples = 2<br/>value = 148000.0>, fillcolor="#fbebe0"] ;
511 -> 513 ;
514 [label=<squared_error = 0.0<br/>samples = 1<br/>value = 147000.0>, fillcolor="#fbebe0"] ;
513 -> 514 ;
515 [label=<squared_error = 0.0<br/>samples = 1<br/>value = 149000.0>, fillcolor="#fbebe0"] ;
513 -> 515 ;
516 [label=<MoSold &le; 8.5<br/>squared_error = 20358024.691<br/>samples = 9<br/>value = 140944.444>, fillcolor="#fbece2"] ;
510 -> 516 ;
517 [label=<YearRemodAdd &le; 1970.0<br/>squared_error = 10359375.0<br/>samples = 8<br/>value = 142125.0>, fillcolor="#fbece2"] ;
516 -> 517 ;
518 [label=<squared_error = 0.0<br/>samples = 2<br/>value = 137500.0>, fillcolor="#fbede3"] ;
517 -> 518 ;
519 [label=<Id &le; 658.0<br/>squared_error = 4305555.556<br/>samples = 6<br/>value = 143666.667>, fillcolor="#fbece1"] ;
517 -> 519 ;
520 [label=<squared_error = 0.0<br/>samples = 1<br/>value = 140000.0>, fillcolor="#fbede2"] ;
519 -> 520 ;
521 [label=<HouseStyle_SFoyer &le; 0.5<br/>squared_error = 1940000.0<br/>samples = 5<br/>value = 144400.0>, fillcolor="#fbece1"] ;
519 -> 521 ;
522 [label=<MoSold &le; 5.5<br/>squared_error = 312500.0<br/>samples = 4<br/>value = 143750.0>, fillcolor="#fbece1"] ;
521 -> 522 ;
523 [label=<BsmtUnfSF &le; 423.0<br/>squared_error = 62500.0<br/>samples = 2<br/>value = 143250.0>, fillcolor="#fbece1"] ;
522 -> 523 ;
524 [label=<squared_error = 0.0<br/>samples = 1<br/>value = 143000.0>, fillcolor="#fbece1"] ;
523 -> 524 ;
525 [label=<squared_error = 0.0<br/>samples = 1<br/>value = 143500.0>, fillcolor="#fbece1"] ;
523 -> 525 ;
526 [label=<BsmtUnfSF &le; 174.5<br/>squared_error = 62500.0<br/>samples = 2<br/>value = 144250.0>, fillcolor="#fbece1"] ;
522 -> 526 ;
527 [label=<squared_error = 0.0<br/>samples = 1<br/>value = 144000.0>, fillcolor="#fbece1"] ;
526 -> 527 ;
528 [label=<squared_error = 0.0<br/>samples = 1<br/>value = 144500.0>, fillcolor="#fbece1"] ;
526 -> 528 ;
529 [label=<squared_error = 0.0<br/>samples = 1<br/>value = 147000.0>, fillcolor="#fbebe0"] ;
521 -> 529 ;
530 [label=<squared_error = 0.0<br/>samples = 1<br/>value = 131500.0>, fillcolor="#fceee4"] ;
516 -> 530 ;
531 [label=<YearBuilt &le; 1963.0<br/>squared_error = 170550042.0<br/>samples = 3<br/>value = 167811.0>, fillcolor="#fae8da"] ;
503 -> 531 ;
532 [label=<squared_error = 0.0<br/>samples = 1<br/>value = 149700.0>, fillcolor="#fbebdf"] ;
531 -> 532 ;
533 [label=<FullBath &le; 1.5<br/>squared_error = 9818822.25<br/>samples = 2<br/>value = 176866.5>, fillcolor="#fae6d8"] ;
531 -> 533 ;
534 [label=<squared_error = 0.0<br/>samples = 1<br/>value = 180000.0>, fillcolor="#fae6d7"] ;
533 -> 534 ;
535 [label=<squared_error = 0.0<br/>samples = 1<br/>value = 173733.0>, fillcolor="#fae7d9"] ;
533 -> 535 ;
536 [label=<squared_error = 0.0<br/>samples = 1<br/>value = 105500.0>, fillcolor="#fcf3ec"] ;
502 -> 536 ;
537 [label=<OverallQual &le; 5.5<br/>squared_error = 460055903.097<br/>samples = 118<br/>value = 147564.5>, fillcolor="#fbebe0"] ;
271 -> 537 ;
538 [label=<Exterior1st_BrkComm &le; 0.5<br/>squared_error = 378733172.317<br/>samples = 75<br/>value = 140569.613>, fillcolor="#fbede2"] ;
537 -> 538 ;
539 [label=<OverallQual &le; 4.5<br/>squared_error = 294943281.941<br/>samples = 74<br/>value = 141658.392>, fillcolor="#fbece2"] ;
538 -> 539 ;
540 [label=<BedroomAbvGr &le; 2.5<br/>squared_error = 94609309.918<br/>samples = 7<br/>value = 119947.714>, fillcolor="#fcf0e8"] ;
539 -> 540 ;
541 [label=<1stFlrSF &le; 1030.5<br/>squared_error = 11592373.556<br/>samples = 3<br/>value = 110319.667>, fillcolor="#fcf2ea"] ;
540 -> 541 ;
542 [label=<squared_error = 0.0<br/>samples = 1<br/>value = 115000.0>, fillcolor="#fcf1e9"] ;
541 -> 542 ;
543 [label=<YrSold &le; 2007.0<br/>squared_error = 959420.25<br/>samples = 2<br/>value = 107979.5>, fillcolor="#fcf2eb"] ;
541 -> 543 ;
544 [label=<squared_error = 0.0<br/>samples = 1<br/>value = 107000.0>, fillcolor="#fcf2eb"] ;
543 -> 544 ;
545 [label=<squared_error = 0.0<br/>samples = 1<br/>value = 108959.0>, fillcolor="#fcf2eb"] ;
543 -> 545 ;
546 [label=<EnclosedPorch &le; 19.5<br/>squared_error = 35204179.688<br/>samples = 4<br/>value = 127168.75>, fillcolor="#fcefe6"] ;
540 -> 546 ;
547 [label=<BsmtFinSF1 &le; 995.5<br/>squared_error = 13540138.889<br/>samples = 3<br/>value = 130058.333>, fillcolor="#fceee5"] ;
546 -> 547 ;
548 [label=<LotArea &le; 6395.0<br/>squared_error = 1995156.25<br/>samples = 2<br/>value = 127587.5>, fillcolor="#fcefe6"] ;
547 -> 548 ;
549 [label=<squared_error = 0.0<br/>samples = 1<br/>value = 126175.0>, fillcolor="#fcefe6"] ;
548 -> 549 ;
550 [label=<squared_error = 0.0<br/>samples = 1<br/>value = 129000.0>, fillcolor="#fcefe5"] ;
548 -> 550 ;
551 [label=<squared_error = 0.0<br/>samples = 1<br/>value = 135000.0>, fillcolor="#fbede3"] ;
547 -> 551 ;
552 [label=<squared_error = 0.0<br/>samples = 1<br/>value = 118500.0>, fillcolor="#fcf0e8"] ;
546 -> 552 ;
553 [label=<TotalBsmtSF &le; 1151.0<br/>squared_error = 261482713.534<br/>samples = 67<br/>value = 143926.672>, fillcolor="#fbece1"] ;
539 -> 553 ;
554 [label=<BsmtUnfSF &le; 1132.5<br/>squared_error = 209574112.433<br/>samples = 52<br/>value = 140083.404>, fillcolor="#fbede2"] ;
553 -> 554 ;
555 [label=<GarageArea &le; 482.0<br/>squared_error = 151916869.454<br/>samples = 51<br/>value = 141173.275>, fillcolor="#fbece2"] ;
554 -> 555 ;
556 [label=<Exterior1st_Plywood &le; 0.5<br/>squared_error = 103766645.408<br/>samples = 28<br/>value = 135682.143>, fillcolor="#fbede3"] ;
555 -> 556 ;
557 [label=<YearBuilt &le; 1994.5<br/>squared_error = 77243284.024<br/>samples = 26<br/>value = 134119.231>, fillcolor="#fbeee4"] ;
556 -> 557 ;
558 [label=<MoSold &le; 1.5<br/>squared_error = 53302788.28<br/>samples = 23<br/>value = 132221.739>, fillcolor="#fbeee4"] ;
557 -> 558 ;
559 [label=<squared_error = 0.0<br/>samples = 1<br/>value = 109000.0>, fillcolor="#fcf2eb"] ;
558 -> 559 ;
560 [label=<OverallCond &le; 5.5<br/>squared_error = 30100165.289<br/>samples = 22<br/>value = 133277.273>, fillcolor="#fbeee4"] ;
558 -> 560 ;
561 [label=<LotArea &le; 8415.0<br/>squared_error = 20376859.504<br/>samples = 11<br/>value = 129836.364>, fillcolor="#fceee5"] ;
560 -> 561 ;
562 [label=<HeatingQC_Gd &le; 0.5<br/>squared_error = 9295000.0<br/>samples = 4<br/>value = 133800.0>, fillcolor="#fbeee4"] ;
561 -> 562 ;
563 [label=<TotalBsmtSF &le; 1051.0<br/>squared_error = 2575555.556<br/>samples = 3<br/>value = 132233.333>, fillcolor="#fbeee4"] ;
562 -> 563 ;
564 [label=<Condition1_Feedr &le; 0.5<br/>squared_error = 122500.0<br/>samples = 2<br/>value = 133350.0>, fillcolor="#fbeee4"] ;
563 -> 564 ;
565 [label=<squared_error = 0.0<br/>samples = 1<br/>value = 133700.0>, fillcolor="#fbeee4"] ;
564 -> 565 ;
566 [label=<squared_error = 0.0<br/>samples = 1<br/>value = 133000.0>, fillcolor="#fbeee4"] ;
564 -> 566 ;
567 [label=<squared_error = 0.0<br/>samples = 1<br/>value = 130000.0>, fillcolor="#fceee5"] ;
563 -> 567 ;
568 [label=<squared_error = 0.0<br/>samples = 1<br/>value = 138500.0>, fillcolor="#fbede3"] ;
562 -> 568 ;
569 [label=<ScreenPorch &le; 96.0<br/>squared_error = 12602040.816<br/>samples = 7<br/>value = 127571.429>, fillcolor="#fcefe6"] ;
561 -> 569 ;
570 [label=<LotArea &le; 9562.0<br/>squared_error = 3972222.222<br/>samples = 6<br/>value = 126333.333>, fillcolor="#fcefe6"] ;
569 -> 570 ;
571 [label=<HeatingQC_Gd &le; 0.5<br/>squared_error = 1296875.0<br/>samples = 4<br/>value = 125125.0>, fillcolor="#fcefe6"] ;
570 -> 571 ;
572 [label=<squared_error = 0.0<br/>samples = 2<br/>value = 124000.0>, fillcolor="#fcefe7"] ;
571 -> 572 ;
573 [label=<Exterior1st_MetalSd &le; 0.5<br/>squared_error = 62500.0<br/>samples = 2<br/>value = 126250.0>, fillcolor="#fcefe6"] ;
571 -> 573 ;
574 [label=<squared_error = 0.0<br/>samples = 1<br/>value = 126000.0>, fillcolor="#fcefe6"] ;
573 -> 574 ;
575 [label=<squared_error = 0.0<br/>samples = 1<br/>value = 126500.0>, fillcolor="#fcefe6"] ;
573 -> 575 ;
576 [label=<YrSold &le; 2009.0<br/>squared_error = 562500.0<br/>samples = 2<br/>value = 128750.0>, fillcolor="#fcefe5"] ;
570 -> 576 ;
577 [label=<squared_error = 0.0<br/>samples = 1<br/>value = 129500.0>, fillcolor="#fceee5"] ;
576 -> 577 ;
578 [label=<squared_error = 0.0<br/>samples = 1<br/>value = 128000.0>, fillcolor="#fcefe5"] ;
576 -> 578 ;
579 [label=<squared_error = 0.0<br/>samples = 1<br/>value = 135000.0>, fillcolor="#fbede3"] ;
569 -> 579 ;
580 [label=<ExterCond_Gd &le; 0.5<br/>squared_error = 16143760.331<br/>samples = 11<br/>value = 136718.182>, fillcolor="#fbede3"] ;
560 -> 580 ;
581 [label=<YearBuilt &le; 1957.5<br/>squared_error = 7369400.0<br/>samples = 10<br/>value = 137690.0>, fillcolor="#fbede3"] ;
580 -> 581 ;
582 [label=<EnclosedPorch &le; 60.0<br/>squared_error = 1081718.75<br/>samples = 4<br/>value = 135237.5>, fillcolor="#fbede3"] ;
581 -> 582 ;
583 [label=<RoofStyle_Gable &le; 0.5<br/>squared_error = 61666.667<br/>samples = 3<br/>value = 134650.0>, fillcolor="#fbeee4"] ;
582 -> 583 ;
584 [label=<squared_error = 0.0<br/>samples = 1<br/>value = 135000.0>, fillcolor="#fbede3"] ;
583 -> 584 ;
585 [label=<BsmtFullBath &le; 0.5<br/>squared_error = 625.0<br/>samples = 2<br/>value = 134475.0>, fillcolor="#fbeee4"] ;
583 -> 585 ;
586 [label=<squared_error = 0.0<br/>samples = 1<br/>value = 134450.0>, fillcolor="#fbeee4"] ;
585 -> 586 ;
587 [label=<squared_error = 0.0<br/>samples = 1<br/>value = 134500.0>, fillcolor="#fbeee4"] ;
585 -> 587 ;
588 [label=<squared_error = 0.0<br/>samples = 1<br/>value = 137000.0>, fillcolor="#fbede3"] ;
582 -> 588 ;
589 [label=<SaleCondition_Family &le; 0.5<br/>squared_error = 4878125.0<br/>samples = 6<br/>value = 139325.0>, fillcolor="#fbede2"] ;
581 -> 589 ;
590 [label=<GarageArea &le; 306.0<br/>squared_error = 1364400.0<br/>samples = 5<br/>value = 140190.0>, fillcolor="#fbede2"] ;
589 -> 590 ;
591 [label=<Exterior2nd_Wd Sdng &le; 0.5<br/>squared_error = 250000.0<br/>samples = 2<br/>value = 141500.0>, fillcolor="#fbece2"] ;
590 -> 591 ;
592 [label=<squared_error = 0.0<br/>samples = 1<br/>value = 142000.0>, fillcolor="#fbece2"] ;
591 -> 592 ;
593 [label=<squared_error = 0.0<br/>samples = 1<br/>value = 141000.0>, fillcolor="#fbece2"] ;
591 -> 593 ;
594 [label=<TotalBsmtSF &le; 1132.5<br/>squared_error = 200555.556<br/>samples = 3<br/>value = 139316.667>, fillcolor="#fbede2"] ;
590 -> 594 ;
595 [label=<squared_error = 0.0<br/>samples = 2<br/>value = 139000.0>, fillcolor="#fbede2"] ;
594 -> 595 ;
596 [label=<squared_error = 0.0<br/>samples = 1<br/>value = 139950.0>, fillcolor="#fbede2"] ;
594 -> 596 ;
597 [label=<squared_error = 0.0<br/>samples = 1<br/>value = 135000.0>, fillcolor="#fbede3"] ;
589 -> 597 ;
598 [label=<squared_error = 0.0<br/>samples = 1<br/>value = 127000.0>, fillcolor="#fcefe6"] ;
580 -> 598 ;
599 [label=<TotalBsmtSF &le; 1122.5<br/>squared_error = 21555555.556<br/>samples = 3<br/>value = 148666.667>, fillcolor="#fbebe0"] ;
557 -> 599 ;
600 [label=<SaleType_WD &le; 0.5<br/>squared_error = 2250000.0<br/>samples = 2<br/>value = 145500.0>, fillcolor="#fbece1"] ;
599 -> 600 ;
601 [label=<squared_error = 0.0<br/>samples = 1<br/>value = 147000.0>, fillcolor="#fbebe0"] ;
600 -> 601 ;
602 [label=<squared_error = 0.0<br/>samples = 1<br/>value = 144000.0>, fillcolor="#fbece1"] ;
600 -> 602 ;
603 [label=<squared_error = 0.0<br/>samples = 1<br/>value = 155000.0>, fillcolor="#fbeade"] ;
599 -> 603 ;
604 [label=<BsmtFinSF1 &le; 430.5<br/>squared_error = 4000000.0<br/>samples = 2<br/>value = 156000.0>, fillcolor="#fbeade"] ;
556 -> 604 ;
605 [label=<squared_error = 0.0<br/>samples = 1<br/>value = 154000.0>, fillcolor="#fbeade"] ;
604 -> 605 ;
606 [label=<squared_error = 0.0<br/>samples = 1<br/>value = 158000.0>, fillcolor="#fbe9dd"] ;
604 -> 606 ;
607 [label=<KitchenQual_TA &le; 0.5<br/>squared_error = 129139810.809<br/>samples = 23<br/>value = 147858.13>, fillcolor="#fbebe0"] ;
555 -> 607 ;
608 [label=<WoodDeckSF &le; 90.0<br/>squared_error = 88360000.0<br/>samples = 5<br/>value = 160050.0>, fillcolor="#fae9dd"] ;
607 -> 608 ;
609 [label=<YrSold &le; 2007.5<br/>squared_error = 16625000.0<br/>samples = 3<br/>value = 153250.0>, fillcolor="#fbeade"] ;
608 -> 609 ;
610 [label=<HalfBath &le; 0.5<br/>squared_error = 140625.0<br/>samples = 2<br/>value = 150375.0>, fillcolor="#fbebdf"] ;
609 -> 610 ;
611 [label=<squared_error = 0.0<br/>samples = 1<br/>value = 150750.0>, fillcolor="#fbebdf"] ;
610 -> 611 ;
612 [label=<squared_error = 0.0<br/>samples = 1<br/>value = 150000.0>, fillcolor="#fbebdf"] ;
610 -> 612 ;
613 [label=<squared_error = 0.0<br/>samples = 1<br/>value = 159000.0>, fillcolor="#fbe9dd"] ;
609 -> 613 ;
614 [label=<HouseStyle_SFoyer &le; 0.5<br/>squared_error = 22562500.0<br/>samples = 2<br/>value = 170250.0>, fillcolor="#fae7da"] ;
608 -> 614 ;
615 [label=<squared_error = 0.0<br/>samples = 1<br/>value = 175000.0>, fillcolor="#fae6d8"] ;
614 -> 615 ;
616 [label=<squared_error = 0.0<br/>samples = 1<br/>value = 165500.0>, fillcolor="#fae8db"] ;
614 -> 616 ;
617 [label=<TotalBsmtSF &le; 1101.5<br/>squared_error = 87708913.806<br/>samples = 18<br/>value = 144471.5>, fillcolor="#fbece1"] ;
607 -> 617 ;
618 [label=<MSSubClass &le; 105.0<br/>squared_error = 69532473.454<br/>samples = 14<br/>value = 147284.786>, fillcolor="#fbebe0"] ;
617 -> 618 ;
619 [label=<BsmtFinSF1 &le; 486.5<br/>squared_error = 27506398.264<br/>samples = 11<br/>value = 150507.909>, fillcolor="#fbebdf"] ;
618 -> 619 ;
620 [label=<GarageArea &le; 487.0<br/>squared_error = 202222.222<br/>samples = 3<br/>value = 144633.333>, fillcolor="#fbece1"] ;
619 -> 620 ;
621 [label=<squared_error = 0.0<br/>samples = 1<br/>value = 144000.0>, fillcolor="#fbece1"] ;
620 -> 621 ;
622 [label=<Id &le; 55.5<br/>squared_error = 2500.0<br/>samples = 2<br/>value = 144950.0>, fillcolor="#fbece1"] ;
620 -> 622 ;
623 [label=<squared_error = 0.0<br/>samples = 1<br/>value = 145000.0>, fillcolor="#fbece1"] ;
622 -> 623 ;
624 [label=<squared_error = 0.0<br/>samples = 1<br/>value = 144900.0>, fillcolor="#fbece1"] ;
622 -> 624 ;
625 [label=<Id &le; 837.5<br/>squared_error = 19950915.359<br/>samples = 8<br/>value = 152710.875>, fillcolor="#fbeadf"] ;
619 -> 625 ;
626 [label=<BsmtFinSF2 &le; 64.0<br/>squared_error = 5569994.188<br/>samples = 4<br/>value = 156321.75>, fillcolor="#fbeade"] ;
625 -> 626 ;
627 [label=<LotArea &le; 8653.5<br/>squared_error = 1575904.222<br/>samples = 3<br/>value = 155112.333>, fillcolor="#fbeade"] ;
626 -> 627 ;
628 [label=<squared_error = 0.0<br/>samples = 1<br/>value = 153337.0>, fillcolor="#fbeade"] ;
627 -> 628 ;
629 [label=<squared_error = 0.0<br/>samples = 2<br/>value = 156000.0>, fillcolor="#fbeade"] ;
627 -> 629 ;
630 [label=<squared_error = 0.0<br/>samples = 1<br/>value = 159950.0>, fillcolor="#fae9dd"] ;
626 -> 630 ;
631 [label=<TotalBsmtSF &le; 991.0<br/>squared_error = 8255000.0<br/>samples = 4<br/>value = 149100.0>, fillcolor="#fbebe0"] ;
625 -> 631 ;
632 [label=<squared_error = 0.0<br/>samples = 1<br/>value = 145000.0>, fillcolor="#fbece1"] ;
631 -> 632 ;
633 [label=<ExterCond_TA &le; 0.5<br/>squared_error = 3535555.556<br/>samples = 3<br/>value = 150466.667>, fillcolor="#fbebdf"] ;
631 -> 633 ;
634 [label=<squared_error = 0.0<br/>samples = 1<br/>value = 153000.0>, fillcolor="#fbeadf"] ;
633 -> 634 ;
635 [label=<HalfBath &le; 0.5<br/>squared_error = 490000.0<br/>samples = 2<br/>value = 149200.0>, fillcolor="#fbebe0"] ;
633 -> 635 ;
636 [label=<squared_error = 0.0<br/>samples = 1<br/>value = 148500.0>, fillcolor="#fbebe0"] ;
635 -> 636 ;
637 [label=<squared_error = 0.0<br/>samples = 1<br/>value = 149900.0>, fillcolor="#fbebdf"] ;
635 -> 637 ;
638 [label=<Neighborhood_Gilbert &le; 0.5<br/>squared_error = 45868888.889<br/>samples = 3<br/>value = 135466.667>, fillcolor="#fbede3"] ;
618 -> 638 ;
639 [label=<Id &le; 443.0<br/>squared_error = 640000.0<br/>samples = 2<br/>value = 130700.0>, fillcolor="#fceee5"] ;
638 -> 639 ;
640 [label=<squared_error = 0.0<br/>samples = 1<br/>value = 129900.0>, fillcolor="#fceee5"] ;
639 -> 640 ;
641 [label=<squared_error = 0.0<br/>samples = 1<br/>value = 131500.0>, fillcolor="#fceee4"] ;
639 -> 641 ;
642 [label=<squared_error = 0.0<br/>samples = 1<br/>value = 145000.0>, fillcolor="#fbece1"] ;
638 -> 642 ;
643 [label=<GarageArea &le; 696.0<br/>squared_error = 26671875.0<br/>samples = 4<br/>value = 134625.0>, fillcolor="#fbeee4"] ;
617 -> 643 ;
644 [label=<GarageCars &le; 1.5<br/>squared_error = 4388888.889<br/>samples = 3<br/>value = 131833.333>, fillcolor="#fceee4"] ;
643 -> 644 ;
645 [label=<squared_error = 0.0<br/>samples = 1<br/>value = 129000.0>, fillcolor="#fcefe5"] ;
644 -> 645 ;
646 [label=<MSZoning_RM &le; 0.5<br/>squared_error = 562500.0<br/>samples = 2<br/>value = 133250.0>, fillcolor="#fbeee4"] ;
644 -> 646 ;
647 [label=<squared_error = 0.0<br/>samples = 1<br/>value = 132500.0>, fillcolor="#fbeee4"] ;
646 -> 647 ;
648 [label=<squared_error = 0.0<br/>samples = 1<br/>value = 134000.0>, fillcolor="#fbeee4"] ;
646 -> 648 ;
649 [label=<squared_error = 0.0<br/>samples = 1<br/>value = 143000.0>, fillcolor="#fbece1"] ;
643 -> 649 ;
650 [label=<squared_error = 0.0<br/>samples = 1<br/>value = 84500.0>, fillcolor="#fdf6f1"] ;
554 -> 650 ;
651 [label=<MSSubClass &le; 50.0<br/>squared_error = 212716333.333<br/>samples = 15<br/>value = 157250.0>, fillcolor="#fbeadd"] ;
553 -> 651 ;
652 [label=<Fireplaces &le; 1.5<br/>squared_error = 113732438.017<br/>samples = 11<br/>value = 151122.727>, fillcolor="#fbebdf"] ;
651 -> 652 ;
653 [label=<HalfBath &le; 0.5<br/>squared_error = 54265802.469<br/>samples = 9<br/>value = 147205.556>, fillcolor="#fbebe0"] ;
652 -> 653 ;
654 [label=<HeatingQC_Gd &le; 0.5<br/>squared_error = 25250000.0<br/>samples = 4<br/>value = 140500.0>, fillcolor="#fbede2"] ;
653 -> 654 ;
655 [label=<GrLivArea &le; 1264.0<br/>squared_error = 1555555.556<br/>samples = 3<br/>value = 143333.333>, fillcolor="#fbece1"] ;
654 -> 655 ;
656 [label=<RoofStyle_Gable &le; 0.5<br/>squared_error = 250000.0<br/>samples = 2<br/>value = 142500.0>, fillcolor="#fbece1"] ;
655 -> 656 ;
657 [label=<squared_error = 0.0<br/>samples = 1<br/>value = 142000.0>, fillcolor="#fbece2"] ;
656 -> 657 ;
658 [label=<squared_error = 0.0<br/>samples = 1<br/>value = 143000.0>, fillcolor="#fbece1"] ;
656 -> 658 ;
659 [label=<squared_error = 0.0<br/>samples = 1<br/>value = 145000.0>, fillcolor="#fbece1"] ;
655 -> 659 ;
660 [label=<squared_error = 0.0<br/>samples = 1<br/>value = 132000.0>, fillcolor="#fbeee4"] ;
654 -> 660 ;
661 [label=<GarageArea &le; 290.5<br/>squared_error = 12729600.0<br/>samples = 5<br/>value = 152570.0>, fillcolor="#fbeadf"] ;
653 -> 661 ;
662 [label=<ExterQual_Gd &le; 0.5<br/>squared_error = 855625.0<br/>samples = 2<br/>value = 148425.0>, fillcolor="#fbebe0"] ;
661 -> 662 ;
663 [label=<squared_error = 0.0<br/>samples = 1<br/>value = 149350.0>, fillcolor="#fbebe0"] ;
662 -> 663 ;
664 [label=<squared_error = 0.0<br/>samples = 1<br/>value = 147500.0>, fillcolor="#fbebe0"] ;
662 -> 664 ;
665 [label=<Neighborhood_NWAmes &le; 0.5<br/>squared_error = 1555555.556<br/>samples = 3<br/>value = 155333.333>, fillcolor="#fbeade"] ;
661 -> 665 ;
666 [label=<TotalBsmtSF &le; 1257.5<br/>squared_error = 250000.0<br/>samples = 2<br/>value = 154500.0>, fillcolor="#fbeade"] ;
665 -> 666 ;
667 [label=<squared_error = 0.0<br/>samples = 1<br/>value = 154000.0>, fillcolor="#fbeade"] ;
666 -> 667 ;
668 [label=<squared_error = 0.0<br/>samples = 1<br/>value = 155000.0>, fillcolor="#fbeade"] ;
666 -> 668 ;
669 [label=<squared_error = 0.0<br/>samples = 1<br/>value = 157000.0>, fillcolor="#fbeadd"] ;
665 -> 669 ;
670 [label=<Id &le; 534.5<br/>squared_error = 1562500.0<br/>samples = 2<br/>value = 168750.0>, fillcolor="#fae8da"] ;
652 -> 670 ;
671 [label=<squared_error = 0.0<br/>samples = 1<br/>value = 170000.0>, fillcolor="#fae7da"] ;
670 -> 671 ;
672 [label=<squared_error = 0.0<br/>samples = 1<br/>value = 167500.0>, fillcolor="#fae8db"] ;
670 -> 672 ;
673 [label=<MSSubClass &le; 140.0<br/>squared_error = 97755000.0<br/>samples = 4<br/>value = 174100.0>, fillcolor="#fae7d9"] ;
651 -> 673 ;
674 [label=<SaleCondition_Normal &le; 0.5<br/>squared_error = 380000.0<br/>samples = 3<br/>value = 179800.0>, fillcolor="#fae6d7"] ;
673 -> 674 ;
675 [label=<squared_error = 0.0<br/>samples = 1<br/>value = 179000.0>, fillcolor="#fae6d7"] ;
674 -> 675 ;
676 [label=<Exterior2nd_BrkFace &le; 0.5<br/>squared_error = 90000.0<br/>samples = 2<br/>value = 180200.0>, fillcolor="#fae6d7"] ;
674 -> 676 ;
677 [label=<squared_error = 0.0<br/>samples = 1<br/>value = 180500.0>, fillcolor="#fae6d7"] ;
676 -> 677 ;
678 [label=<squared_error = 0.0<br/>samples = 1<br/>value = 179900.0>, fillcolor="#fae6d7"] ;
676 -> 678 ;
679 [label=<squared_error = 0.0<br/>samples = 1<br/>value = 157000.0>, fillcolor="#fbeadd"] ;
673 -> 679 ;
680 [label=<squared_error = 0.0<br/>samples = 1<br/>value = 60000.0>, fillcolor="#fefbf8"] ;
538 -> 680 ;
681 [label=<KitchenQual_TA &le; 0.5<br/>squared_error = 367708211.033<br/>samples = 43<br/>value = 159764.884>, fillcolor="#fae9dd"] ;
537 -> 681 ;
682 [label=<GarageArea &le; 600.0<br/>squared_error = 257806290.667<br/>samples = 15<br/>value = 174846.0>, fillcolor="#fae7d9"] ;
681 -> 682 ;
683 [label=<BsmtHalfBath &le; 0.5<br/>squared_error = 159311178.698<br/>samples = 13<br/>value = 170645.385>, fillcolor="#fae7da"] ;
682 -> 683 ;
684 [label=<GrLivArea &le; 1199.5<br/>squared_error = 113212702.083<br/>samples = 12<br/>value = 172782.5>, fillcolor="#fae7d9"] ;
683 -> 684 ;
685 [label=<LotArea &le; 13441.5<br/>squared_error = 77351875.0<br/>samples = 4<br/>value = 160975.0>, fillcolor="#fae9dc"] ;
684 -> 685 ;
686 [label=<ExterQual_Gd &le; 0.5<br/>squared_error = 2802222.222<br/>samples = 3<br/>value = 155966.667>, fillcolor="#fbeade"] ;
685 -> 686 ;
687 [label=<Id &le; 408.0<br/>squared_error = 1000000.0<br/>samples = 2<br/>value = 157000.0>, fillcolor="#fbeadd"] ;
686 -> 687 ;
688 [label=<squared_error = 0.0<br/>samples = 1<br/>value = 158000.0>, fillcolor="#fbe9dd"] ;
687 -> 688 ;
689 [label=<squared_error = 0.0<br/>samples = 1<br/>value = 156000.0>, fillcolor="#fbeade"] ;
687 -> 689 ;
690 [label=<squared_error = 0.0<br/>samples = 1<br/>value = 153900.0>, fillcolor="#fbeade"] ;
686 -> 690 ;
691 [label=<squared_error = 0.0<br/>samples = 1<br/>value = 176000.0>, fillcolor="#fae6d8"] ;
685 -> 691 ;
692 [label=<MoSold &le; 9.0<br/>squared_error = 26580323.438<br/>samples = 8<br/>value = 178686.25>, fillcolor="#fae6d7"] ;
684 -> 692 ;
693 [label=<BsmtUnfSF &le; 339.5<br/>squared_error = 11701388.889<br/>samples = 6<br/>value = 181083.333>, fillcolor="#fae5d7"] ;
692 -> 693 ;
694 [label=<LotShape_Reg &le; 0.5<br/>squared_error = 2796875.0<br/>samples = 4<br/>value = 178875.0>, fillcolor="#fae6d7"] ;
693 -> 694 ;
695 [label=<ScreenPorch &le; 81.5<br/>squared_error = 62500.0<br/>samples = 2<br/>value = 177250.0>, fillcolor="#fae6d8"] ;
694 -> 695 ;
696 [label=<squared_error = 0.0<br/>samples = 1<br/>value = 177500.0>, fillcolor="#fae6d8"] ;
695 -> 696 ;
697 [label=<squared_error = 0.0<br/>samples = 1<br/>value = 177000.0>, fillcolor="#fae6d8"] ;
695 -> 697 ;
698 [label=<HalfBath &le; 0.5<br/>squared_error = 250000.0<br/>samples = 2<br/>value = 180500.0>, fillcolor="#fae6d7"] ;
694 -> 698 ;
699 [label=<squared_error = 0.0<br/>samples = 1<br/>value = 180000.0>, fillcolor="#fae6d7"] ;
698 -> 699 ;
700 [label=<squared_error = 0.0<br/>samples = 1<br/>value = 181000.0>, fillcolor="#fae5d7"] ;
698 -> 700 ;
701 [label=<YrSold &le; 2008.0<br/>squared_error = 250000.0<br/>samples = 2<br/>value = 185500.0>, fillcolor="#fae5d6"] ;
693 -> 701 ;
702 [label=<squared_error = 0.0<br/>samples = 1<br/>value = 185000.0>, fillcolor="#fae5d6"] ;
701 -> 702 ;
703 [label=<squared_error = 0.0<br/>samples = 1<br/>value = 186000.0>, fillcolor="#fae5d5"] ;
701 -> 703 ;
704 [label=<Condition1_Norm &le; 0.5<br/>squared_error = 2265025.0<br/>samples = 2<br/>value = 171495.0>, fillcolor="#fae7d9"] ;
692 -> 704 ;
705 [label=<squared_error = 0.0<br/>samples = 1<br/>value = 169990.0>, fillcolor="#fae7da"] ;
704 -> 705 ;
706 [label=<squared_error = 0.0<br/>samples = 1<br/>value = 173000.0>, fillcolor="#fae7d9"] ;
704 -> 706 ;
707 [label=<squared_error = 0.0<br/>samples = 1<br/>value = 145000.0>, fillcolor="#fbece1"] ;
683 -> 707 ;
708 [label=<LotArea &le; 6621.5<br/>squared_error = 37822500.0<br/>samples = 2<br/>value = 202150.0>, fillcolor="#f9e2d1"] ;
682 -> 708 ;
709 [label=<squared_error = 0.0<br/>samples = 1<br/>value = 196000.0>, fillcolor="#f9e3d3"] ;
708 -> 709 ;
710 [label=<squared_error = 0.0<br/>samples = 1<br/>value = 208300.0>, fillcolor="#f9e1cf"] ;
708 -> 710 ;
711 [label=<SaleCondition_Normal &le; 0.5<br/>squared_error = 239468367.347<br/>samples = 28<br/>value = 151685.714>, fillcolor="#fbebdf"] ;
681 -> 711 ;
712 [label=<squared_error = 0.0<br/>samples = 1<br/>value = 107000.0>, fillcolor="#fcf2eb"] ;
711 -> 712 ;
713 [label=<TotRmsAbvGrd &le; 5.5<br/>squared_error = 171642414.266<br/>samples = 27<br/>value = 153340.741>, fillcolor="#fbeade"] ;
711 -> 713 ;
714 [label=<YearRemodAdd &le; 1990.5<br/>squared_error = 136921875.0<br/>samples = 8<br/>value = 141375.0>, fillcolor="#fbece2"] ;
713 -> 714 ;
715 [label=<Neighborhood_NPkVill &le; 0.5<br/>squared_error = 39201388.889<br/>samples = 6<br/>value = 135583.333>, fillcolor="#fbede3"] ;
714 -> 715 ;
716 [label=<ExterCond_Gd &le; 0.5<br/>squared_error = 12750000.0<br/>samples = 4<br/>value = 139500.0>, fillcolor="#fbede2"] ;
715 -> 716 ;
717 [label=<BldgType_Duplex &le; 0.5<br/>squared_error = 3555555.556<br/>samples = 3<br/>value = 141333.333>, fillcolor="#fbece2"] ;
716 -> 717 ;
718 [label=<squared_error = 0.0<br/>samples = 2<br/>value = 140000.0>, fillcolor="#fbede2"] ;
717 -> 718 ;
719 [label=<squared_error = 0.0<br/>samples = 1<br/>value = 144000.0>, fillcolor="#fbece1"] ;
717 -> 719 ;
720 [label=<squared_error = 0.0<br/>samples = 1<br/>value = 134000.0>, fillcolor="#fbeee4"] ;
716 -> 720 ;
721 [label=<ScreenPorch &le; 82.5<br/>squared_error = 62500.0<br/>samples = 2<br/>value = 127750.0>, fillcolor="#fcefe5"] ;
715 -> 721 ;
722 [label=<squared_error = 0.0<br/>samples = 1<br/>value = 128000.0>, fillcolor="#fcefe5"] ;
721 -> 722 ;
723 [label=<squared_error = 0.0<br/>samples = 1<br/>value = 127500.0>, fillcolor="#fcefe6"] ;
721 -> 723 ;
724 [label=<BldgType_TwnhsE &le; 0.5<br/>squared_error = 27562500.0<br/>samples = 2<br/>value = 158750.0>, fillcolor="#fbe9dd"] ;
714 -> 724 ;
725 [label=<squared_error = 0.0<br/>samples = 1<br/>value = 164000.0>, fillcolor="#fae8dc"] ;
724 -> 725 ;
726 [label=<squared_error = 0.0<br/>samples = 1<br/>value = 153500.0>, fillcolor="#fbeade"] ;
724 -> 726 ;
727 [label=<HeatingQC_TA &le; 0.5<br/>squared_error = 100592188.366<br/>samples = 19<br/>value = 158378.947>, fillcolor="#fbe9dd"] ;
713 -> 727 ;
728 [label=<YearBuilt &le; 1966.5<br/>squared_error = 36750000.0<br/>samples = 4<br/>value = 147500.0>, fillcolor="#fbebe0"] ;
727 -> 728 ;
729 [label=<Exterior2nd_Wd Sdng &le; 0.5<br/>squared_error = 9000000.0<br/>samples = 2<br/>value = 142000.0>, fillcolor="#fbece2"] ;
728 -> 729 ;
730 [label=<squared_error = 0.0<br/>samples = 1<br/>value = 145000.0>, fillcolor="#fbece1"] ;
729 -> 730 ;
731 [label=<squared_error = 0.0<br/>samples = 1<br/>value = 139000.0>, fillcolor="#fbede2"] ;
729 -> 731 ;
732 [label=<Id &le; 1039.5<br/>squared_error = 4000000.0<br/>samples = 2<br/>value = 153000.0>, fillcolor="#fbeadf"] ;
728 -> 732 ;
733 [label=<squared_error = 0.0<br/>samples = 1<br/>value = 155000.0>, fillcolor="#fbeade"] ;
732 -> 733 ;
734 [label=<squared_error = 0.0<br/>samples = 1<br/>value = 151000.0>, fillcolor="#fbebdf"] ;
732 -> 734 ;
735 [label=<YearRemodAdd &le; 1977.5<br/>squared_error = 77640266.667<br/>samples = 15<br/>value = 161280.0>, fillcolor="#fae9dc"] ;
727 -> 735 ;
736 [label=<Fireplaces &le; 1.5<br/>squared_error = 63761487.603<br/>samples = 11<br/>value = 164518.182>, fillcolor="#fae8db"] ;
735 -> 736 ;
737 [label=<HouseStyle_SLvl &le; 0.5<br/>squared_error = 15845432.099<br/>samples = 9<br/>value = 167411.111>, fillcolor="#fae8db"] ;
736 -> 737 ;
738 [label=<TotalBsmtSF &le; 1356.0<br/>squared_error = 4661600.0<br/>samples = 5<br/>value = 164480.0>, fillcolor="#fae8db"] ;
737 -> 738 ;
739 [label=<GarageArea &le; 588.0<br/>squared_error = 1868888.889<br/>samples = 3<br/>value = 165966.667>, fillcolor="#fae8db"] ;
738 -> 739 ;
740 [label=<squared_error = 0.0<br/>samples = 2<br/>value = 165000.0>, fillcolor="#fae8db"] ;
739 -> 740 ;
741 [label=<squared_error = 0.0<br/>samples = 1<br/>value = 167900.0>, fillcolor="#fae8da"] ;
739 -> 741 ;
742 [label=<Neighborhood_NAmes &le; 0.5<br/>squared_error = 562500.0<br/>samples = 2<br/>value = 162250.0>, fillcolor="#fae9dc"] ;
738 -> 742 ;
743 [label=<squared_error = 0.0<br/>samples = 1<br/>value = 161500.0>, fillcolor="#fae9dc"] ;
742 -> 743 ;
744 [label=<squared_error = 0.0<br/>samples = 1<br/>value = 163000.0>, fillcolor="#fae9dc"] ;
742 -> 744 ;
745 [label=<OverallCond &le; 6.5<br/>squared_error = 5661875.0<br/>samples = 4<br/>value = 171075.0>, fillcolor="#fae7da"] ;
737 -> 745 ;
746 [label=<BsmtFinSF1 &le; 581.5<br/>squared_error = 1046666.667<br/>samples = 3<br/>value = 169800.0>, fillcolor="#fae7da"] ;
745 -> 746 ;
747 [label=<LotShape_Reg &le; 0.5<br/>squared_error = 302500.0<br/>samples = 2<br/>value = 170450.0>, fillcolor="#fae7da"] ;
746 -> 747 ;
748 [label=<squared_error = 0.0<br/>samples = 1<br/>value = 169900.0>, fillcolor="#fae7da"] ;
747 -> 748 ;
749 [label=<squared_error = 0.0<br/>samples = 1<br/>value = 171000.0>, fillcolor="#fae7da"] ;
747 -> 749 ;
750 [label=<squared_error = 0.0<br/>samples = 1<br/>value = 168500.0>, fillcolor="#fae8da"] ;
746 -> 750 ;
751 [label=<squared_error = 0.0<br/>samples = 1<br/>value = 174900.0>, fillcolor="#fae7d9"] ;
745 -> 751 ;
752 [label=<OverallCond &le; 5.5<br/>squared_error = 72250000.0<br/>samples = 2<br/>value = 151500.0>, fillcolor="#fbebdf"] ;
736 -> 752 ;
753 [label=<squared_error = 0.0<br/>samples = 1<br/>value = 143000.0>, fillcolor="#fbece1"] ;
752 -> 753 ;
754 [label=<squared_error = 0.0<br/>samples = 1<br/>value = 160000.0>, fillcolor="#fae9dd"] ;
752 -> 754 ;
755 [label=<Fireplaces &le; 0.5<br/>squared_error = 7671875.0<br/>samples = 4<br/>value = 152375.0>, fillcolor="#fbeadf"] ;
735 -> 755 ;
756 [label=<Foundation_PConc &le; 0.5<br/>squared_error = 1722222.222<br/>samples = 3<br/>value = 153833.333>, fillcolor="#fbeade"] ;
755 -> 756 ;
757 [label=<Condition1_Norm &le; 0.5<br/>squared_error = 62500.0<br/>samples = 2<br/>value = 154750.0>, fillcolor="#fbeade"] ;
756 -> 757 ;
758 [label=<squared_error = 0.0<br/>samples = 1<br/>value = 155000.0>, fillcolor="#fbeade"] ;
757 -> 758 ;
759 [label=<squared_error = 0.0<br/>samples = 1<br/>value = 154500.0>, fillcolor="#fbeade"] ;
757 -> 759 ;
760 [label=<squared_error = 0.0<br/>samples = 1<br/>value = 152000.0>, fillcolor="#fbebdf"] ;
756 -> 760 ;
761 [label=<squared_error = 0.0<br/>samples = 1<br/>value = 148000.0>, fillcolor="#fbebe0"] ;
755 -> 761 ;
762 [label=<BsmtFinSF1 &le; 446.0<br/>squared_error = 1256239586.947<br/>samples = 242<br/>value = 165248.058>, fillcolor="#fae8db"] ;
2 -> 762 ;
763 [label=<Fireplaces &le; 0.5<br/>squared_error = 865902319.27<br/>samples = 140<br/>value = 151490.043>, fillcolor="#fbebdf"] ;
762 -> 763 ;
764 [label=<HalfBath &le; 0.5<br/>squared_error = 719809892.028<br/>samples = 61<br/>value = 135630.066>, fillcolor="#fbede3"] ;
763 -> 764 ;
765 [label=<Exterior2nd_Wd Shng &le; 0.5<br/>squared_error = 603699461.913<br/>samples = 41<br/>value = 125829.195>, fillcolor="#fcefe6"] ;
764 -> 765 ;
766 [label=<YearRemodAdd &le; 1959.0<br/>squared_error = 417315087.744<br/>samples = 40<br/>value = 123612.425>, fillcolor="#fcefe7"] ;
765 -> 766 ;
767 [label=<GrLivArea &le; 1775.0<br/>squared_error = 241398347.107<br/>samples = 11<br/>value = 104127.273>, fillcolor="#fdf3ec"] ;
766 -> 767 ;
768 [label=<EnclosedPorch &le; 114.0<br/>squared_error = 88768055.556<br/>samples = 6<br/>value = 92983.333>, fillcolor="#fdf5ef"] ;
767 -> 768 ;
769 [label=<LotConfig_Inside &le; 0.5<br/>squared_error = 26546875.0<br/>samples = 4<br/>value = 87125.0>, fillcolor="#fdf6f1"] ;
768 -> 769 ;
770 [label=<squared_error = 0.0<br/>samples = 1<br/>value = 79000.0>, fillcolor="#fdf7f3"] ;
769 -> 770 ;
771 [label=<Exterior2nd_Wd Sdng &le; 0.5<br/>squared_error = 6055555.556<br/>samples = 3<br/>value = 89833.333>, fillcolor="#fdf5f0"] ;
769 -> 771 ;
772 [label=<MSSubClass &le; 60.0<br/>squared_error = 1562500.0<br/>samples = 2<br/>value = 88250.0>, fillcolor="#fdf6f0"] ;
771 -> 772 ;
773 [label=<squared_error = 0.0<br/>samples = 1<br/>value = 89500.0>, fillcolor="#fdf5f0"] ;
772 -> 773 ;
774 [label=<squared_error = 0.0<br/>samples = 1<br/>value = 87000.0>, fillcolor="#fdf6f1"] ;
772 -> 774 ;
775 [label=<squared_error = 0.0<br/>samples = 1<br/>value = 93000.0>, fillcolor="#fdf5ef"] ;
771 -> 775 ;
776 [label=<GarageArea &le; 189.5<br/>squared_error = 7290000.0<br/>samples = 2<br/>value = 104700.0>, fillcolor="#fcf3ec"] ;
768 -> 776 ;
777 [label=<squared_error = 0.0<br/>samples = 1<br/>value = 102000.0>, fillcolor="#fdf3ed"] ;
776 -> 777 ;
778 [label=<squared_error = 0.0<br/>samples = 1<br/>value = 107400.0>, fillcolor="#fcf2eb"] ;
776 -> 778 ;
779 [label=<LotConfig_Inside &le; 0.5<br/>squared_error = 96700000.0<br/>samples = 5<br/>value = 117500.0>, fillcolor="#fcf1e8"] ;
767 -> 779 ;
780 [label=<KitchenAbvGr &le; 1.5<br/>squared_error = 9000000.0<br/>samples = 2<br/>value = 107000.0>, fillcolor="#fcf2eb"] ;
779 -> 780 ;
781 [label=<squared_error = 0.0<br/>samples = 1<br/>value = 104000.0>, fillcolor="#fdf3ec"] ;
780 -> 781 ;
782 [label=<squared_error = 0.0<br/>samples = 1<br/>value = 110000.0>, fillcolor="#fcf2ea"] ;
780 -> 782 ;
783 [label=<YearBuilt &le; 1916.0<br/>squared_error = 32666666.667<br/>samples = 3<br/>value = 124500.0>, fillcolor="#fcefe6"] ;
779 -> 783 ;
784 [label=<squared_error = 0.0<br/>samples = 1<br/>value = 117500.0>, fillcolor="#fcf1e8"] ;
783 -> 784 ;
785 [label=<YearBuilt &le; 1953.0<br/>squared_error = 12250000.0<br/>samples = 2<br/>value = 128000.0>, fillcolor="#fcefe5"] ;
783 -> 785 ;
786 [label=<squared_error = 0.0<br/>samples = 1<br/>value = 124500.0>, fillcolor="#fcefe6"] ;
785 -> 786 ;
787 [label=<squared_error = 0.0<br/>samples = 1<br/>value = 131500.0>, fillcolor="#fceee4"] ;
785 -> 787 ;
788 [label=<Condition2_Feedr &le; 0.5<br/>squared_error = 285403233.122<br/>samples = 29<br/>value = 131003.345>, fillcolor="#fceee5"] ;
766 -> 788 ;
789 [label=<BsmtFinSF1 &le; 220.5<br/>squared_error = 217314414.504<br/>samples = 28<br/>value = 132646.321>, fillcolor="#fbeee4"] ;
788 -> 789 ;
790 [label=<MSZoning_RM &le; 0.5<br/>squared_error = 190059703.845<br/>samples = 22<br/>value = 128627.136>, fillcolor="#fcefe5"] ;
789 -> 790 ;
791 [label=<GarageCars &le; 1.5<br/>squared_error = 167098020.311<br/>samples = 14<br/>value = 134271.214>, fillcolor="#fbeee4"] ;
790 -> 791 ;
792 [label=<OverallCond &le; 6.5<br/>squared_error = 81479260.204<br/>samples = 7<br/>value = 143139.286>, fillcolor="#fbece1"] ;
791 -> 792 ;
793 [label=<Id &le; 784.0<br/>squared_error = 5629600.0<br/>samples = 5<br/>value = 137680.0>, fillcolor="#fbede3"] ;
792 -> 793 ;
794 [label=<Id &le; 508.0<br/>squared_error = 380000.0<br/>samples = 3<br/>value = 135800.0>, fillcolor="#fbede3"] ;
793 -> 794 ;
795 [label=<BsmtFullBath &le; 0.5<br/>squared_error = 90000.0<br/>samples = 2<br/>value = 136200.0>, fillcolor="#fbede3"] ;
794 -> 795 ;
796 [label=<squared_error = 0.0<br/>samples = 1<br/>value = 136500.0>, fillcolor="#fbede3"] ;
795 -> 796 ;
797 [label=<squared_error = 0.0<br/>samples = 1<br/>value = 135900.0>, fillcolor="#fbede3"] ;
795 -> 797 ;
798 [label=<squared_error = 0.0<br/>samples = 1<br/>value = 135000.0>, fillcolor="#fbede3"] ;
794 -> 798 ;
799 [label=<Exterior2nd_BrkFace &le; 0.5<br/>squared_error = 250000.0<br/>samples = 2<br/>value = 140500.0>, fillcolor="#fbede2"] ;
793 -> 799 ;
800 [label=<squared_error = 0.0<br/>samples = 1<br/>value = 140000.0>, fillcolor="#fbede2"] ;
799 -> 800 ;
801 [label=<squared_error = 0.0<br/>samples = 1<br/>value = 141000.0>, fillcolor="#fbece2"] ;
799 -> 801 ;
802 [label=<EnclosedPorch &le; 114.0<br/>squared_error = 10320156.25<br/>samples = 2<br/>value = 156787.5>, fillcolor="#fbeadd"] ;
792 -> 802 ;
803 [label=<squared_error = 0.0<br/>samples = 1<br/>value = 153575.0>, fillcolor="#fbeade"] ;
802 -> 803 ;
804 [label=<squared_error = 0.0<br/>samples = 1<br/>value = 160000.0>, fillcolor="#fae9dd"] ;
802 -> 804 ;
805 [label=<1stFlrSF &le; 1608.0<br/>squared_error = 95431398.694<br/>samples = 7<br/>value = 125403.143>, fillcolor="#fcefe6"] ;
